solver_type L2R_L2LOSS_SVC_DUAL
nr_class 2
label 1 0
nr_feature 424718
bias -1
w
0.4845658065181686 
0.1133338634864583 
-0.04174867821791579 
0.0993580768956577 
-0.1410831985116306 
0 
0.04944443131238917 
-0.003561044954186312 
-9.540979117872439e-18 
0.929366554026542 
0.005904962365115038 
5.421010862427522e-20 
0.1022219045622586 
-0.009646679605498844 
0 
0 
0.03252292400664721 
-0.001172542549111141 
-0.001061220667920031 
0.04503727044040627 
-0.002650329809267704 
0.02809698230747318 
-0.02231457322972545 
0.05173003359411898 
0.07472356693842544 
-0.02139891288450816 
0.07007429783031172 
0.04029376429779332 
0.1052675289567268 
0.1178321798417914 
0.005007376684434934 
-0.002576128610048927 
-0.04562439030069885 
0.008732336560402832 
0.0516697783766559 
-0.002150459927650002 
0.1122729404036032 
-0.03198482131807728 
-0.001342455528618073 
0.04388301244832273 
0.03434278545392658 
0.1204008261510394 
-0.001951428032709712 
0.0345670187096994 
0.06173021398608158 
0.07039314750359101 
-0.01318912944152585 
-0.01291768806583112 
0.06831439128146052 
0.04515312411231089 
0.08726512610993427 
0.1247235789921868 
0.05070524261271384 
-0.07772921685792168 
0.09125414663885631 
0.06007736771192364 
0 
0.001344865630444683 
0.02898276878610117 
-0.006440594970330163 
0 
-0.02362360792526076 
0.06440379232493298 
0.02489485093732551 
0.0008950189747777784 
-0.0102273702908454 
0.01986165085980209 
-0.1028742111616847 
0.07356356530524058 
-0.05280556378861009 
-0.08773112469210201 
0 
-0.01897471602811333 
0.03024015392371796 
0.03920749573890995 
0 
0.1036316498863593 
-0.09517917942614572 
0.06250263024362004 
0.04923556328247167 
-0.01984433259634336 
0.06217468671944724 
0 
0.04838317018295001 
0.02190053590946609 
-0.03994200429577909 
0.02794708919199589 
0.03482990054937456 
0.008064023103147499 
0.04745821509084385 
0.01207018736972249 
-0.2129522259162432 
0.1372793246284941 
-0.03164496148895372 
0.0182386804621009 
0.01950308193054846 
0.0650909254772007 
-0.02538921360258943 
-0.03616566149314666 
-0.1843610898532722 
0.04147698585245192 
0.006692385781017679 
0.07517298747413596 
0.09298343407935392 
0.03485674343351298 
0.03955082774667551 
-0.0001888726592658122 
-0.156794003904884 
0.05290942365529493 
0.009508101801113908 
-0.001818939721897619 
-0.02884541147828028 
0.05775714620794606 
-0.009809602390597312 
-0.04758864562786867 
-0.0354008816488486 
-0.02427218458403947 
-0.03202380005978951 
0.006818940561439685 
0.02066788295267437 
0.06193405669776463 
0.0797867118521548 
0.0714180199286939 
0.004287487807147187 
0.05614343838197132 
0.01892705587979757 
-0.0721205829604567 
0.003715321870673128 
0.02036425847564427 
0.04040600406702423 
-0.09618876916204246 
0 
-0.00453428412886794 
-0.05689625698095359 
-0.04793621260397273 
-0.004135849231509888 
0.01223841666122515 
0.003194008590030713 
0.09649352655426752 
0.009732334651005533 
-0.1108954936879116 
0.01484916297911073 
0.04196438048801697 
0.03330514572924621 
-0.008187091653659139 
0.05597805916943908 
-0.1196584190024211 
-0.04262479635907521 
-0.05181311212045719 
-0.004834231921632539 
0.007208797814337712 
0.03742520726213651 
0.1143009121266022 
0.01240625128236451 
0.0739548025711806 
6.776263578034403e-21 
0.0002445938517233233 
0.05371686072438721 
0.01546257634223874 
-0.02870955392433671 
0.07879891322942494 
0.06456521843410711 
-0.1545117496935923 
0.028801157627819 
-0.0099635076135909 
-0.005902379844872666 
0.08599079691327619 
-0.06594231173608196 
0.01032995856951213 
0.03208366372374863 
0.04661149289628049 
-0.007685718026368828 
0.09637459345245494 
0.01936887205799485 
-0.01078863523431181 
0.0121979624944176 
0.0007286165317107499 
0.1139104958022757 
0.08526461824893541 
0.1372636368390921 
0.04272896556759485 
0.002148176485320121 
-0.003899275121709042 
0.0002393088306502833 
0 
-0.05386060934638585 
-0.05192454275123124 
0.001654080200292106 
-0.01974003759079869 
0.07245582005952143 
0.01181000770197312 
-0.02144725399234274 
-0.01835263857047685 
0.06332921700699461 
0.06118683435684618 
0.0694381837262531 
0.01438557900388992 
0 
0.01774201362000176 
0.06227310211356502 
-0.02513667621692751 
-0.06510282555917792 
0.05246125195550917 
0.0627970690186249 
0.0352121415447143 
0.08664262095647335 
-0.01663217228907614 
0.05019652801125464 
0.03770395769698057 
-0.06808363490593571 
0.01271386243881674 
5.421010862427522e-20 
0.02417006301172 
0.01231443334082727 
0.0133054385696236 
0.02606561717096284 
0.07211860057572336 
0.0004685168526600923 
0.004551161483846535 
0 
-0.01422885700210993 
-0.001126759703074021 
0.02258450415480081 
-0.03618972143171973 
0 
0.01948243312880353 
0.01200942841014574 
-0.06811664681788716 
0.003293036664949478 
-0.02767222755288041 
-0.01309583961893224 
-0.07353320986010568 
-0.005631043714029218 
0.03773440058366889 
0.01869771104583144 
0 
-0.00875328973092469 
-0.1747777793843422 
0.02965916386965643 
-0.03350697852087059 
-0.00525856864594808 
0.02073469711468071 
0.09134961113079394 
0.05843790416069373 
-0.05955898617321652 
0.009162267027913366 
0.02076145853181697 
0.008968187298510798 
0.03807499733598777 
0.01237831062845401 
-0.0747652033813882 
0 
0.005806798596670283 
0.003711897284617517 
0 
-0.003393797169914776 
0.03852982634059935 
-0.002462359661665899 
-0.03698994761851375 
-0.03721061903747709 
0.0075098644777084 
0 
0.1542185058903821 
0.005052855338654076 
2.000023903353736e-06 
0 
0.003783656465703938 
-0.04425825991851701 
-0.01989439522602168 
-1.084202172485504e-19 
-0.003943785841175486 
0 
-2.168404344971009e-19 
0.007520637819815699 
0.1405743195896341 
-0.01913213410281478 
-0.03068226173552282 
0.01021687943715926 
0.005383283495812996 
0.09454069475501767 
-0.003144345366308145 
0.05038002577043627 
0.03839154773201198 
0.1312281844912684 
-0.001846693330645981 
0.0009492456581264952 
-0.03506276324791228 
0.02296527718713968 
0.002307618010647705 
0.002565193989616114 
0 
-0.04064209003818873 
0.03063280630178694 
0.003601641086398555 
0.0349186215452606 
-0.01706670642830739 
0.004672424156087991 
-0.01048232670942656 
-0.00993075038604754 
0.02494778704915388 
-0.0608970692116048 
-0.00350434635227343 
0.01544623552885681 
-0.02916296079884965 
-0.07217245230921585 
0.02343905377097678 
0.02855180350922506 
0.0005999742313397273 
-0.1139397842986528 
-0.03852865060456286 
0.02613678667471378 
0.03501799455918098 
0.08270137344556178 
-0.106230462708829 
-0.0407825363675525 
-0.0001473794068112551 
-0.006793494500432851 
0.07076401479903817 
-0.01555460534104762 
0.01365348445153963 
-0.05135579578139789 
0.008319838921079906 
0.001239926590636667 
-0.01763544959273032 
-0.003347756772371186 
-0.005503414515421029 
-0.004016488226036358 
-0.006199930885006517 
-0.02765876699519709 
0.04046690778911329 
-0.01833543598064656 
0.01298926774334038 
0 
-0.004627276800715939 
0.08032366721085801 
0.01474955317776534 
0.003696975872443509 
-0.03068948648421914 
-0.02588497048594266 
-0.001519893687026764 
0.007887349804552586 
-0.03961457153745367 
0.007793504049961317 
0.07743726907505465 
0.009014136039264766 
0.01434134631767258 
0 
-0.01155141158203977 
0.009087428193694444 
0 
0.04870104690369795 
0.007140214205002999 
-0.1167000239489918 
0.02625696560681786 
0.1152842892032395 
0.08263665848834088 
-0.05184181595177912 
0.03143066878843673 
-0.03102439430756103 
-0.005411585274065739 
-0.005323910578267417 
0.0233316618259337 
0.01904503775395713 
-0.002691709698799226 
-0.01207046774271468 
-0.009339462952911793 
-0.0001697734515164868 
-0.061208842413031 
-0.01729210298712057 
0.001388882220667324 
8.131516293641283e-20 
0.02951308184132241 
-0.005623732585824452 
0.05081900891608553 
-0.1074796506094806 
-0.02658187749948386 
-0.2251526195061613 
-0.2989375553733952 
-0.1136691683765201 
0 
0.002185597384919506 
0.04544577766244961 
0.004521395450238742 
0.004551161483846535 
0.01604966692737351 
0.008078753221065358 
0.0486918630767776 
0.04025463843310822 
0.01101827257299207 
0.006957177159033166 
-0.01847324307088557 
-0.00644864870581657 
-0.07036862405335965 
0 
0.0005277354333086738 
-0.007749230973553975 
0.03003374129395422 
0.0663518482320779 
0.07670994171811371 
0.03902485890718636 
0.002475309524839993 
0.006095289102496915 
-0.000275450547508148 
-0.133538412481443 
0.06178501924430603 
0.009705167786242291 
0.002467089046993679 
-0.03683221704628251 
0.08674165018818422 
0.01996155798053369 
0 
0.002281124794856786 
-0.05251295207910835 
0.06884071081415363 
-0.01855975488354845 
-0.00594942893452796 
0.02419575002913078 
0.0747476639393949 
-0.03624323026083137 
0.0039822886307187 
-0.0668398695334313 
0 
-0.08425942306329728 
0.1072749807509048 
0.09447594273881005 
0.006596747200637755 
-0.007695346920578327 
0.001251352716178977 
0.03789460381462431 
0.1279524233161573 
-0.04047029548062633 
-0.01335545757891514 
0.001120859584687325 
0.04811467936929939 
0.04759954457480686 
0.06163483624529105 
-0.005211121645159238 
0.1111748218945988 
-0.004317249258116246 
0.1686341612945488 
0 
0.04103375378310579 
0.04219333798272861 
-0.03371256772453519 
0.02510226380559089 
0.03622355648454448 
-0.1310451501319431 
0.008162700954970195 
0.005692511769033421 
0.01228183507654001 
-0.03297909038041864 
-0.007823214346589556 
0.03098545809859802 
0.1095959238955791 
0.07477780291848356 
0.0765626678582387 
-0.03541180540458642 
0.006564963539806444 
-0.0467663002819246 
0.01628979196429185 
-2.710505431213761e-20 
-0.00702987496604462 
0.002314768446103853 
-0.1465568220023009 
0.02888879352733939 
-0.005759755410379872 
0.02648306399385483 
0.02480835338626355 
0 
-0.01962794478422569 
0 
0.02898639584645546 
0.009278600506164709 
0 
-0.03231045602730663 
-0.0337447688776437 
-0.006967825344819072 
0.005704059704128118 
0.02265259195000079 
-0.03464670559744711 
0 
0.03258074211607764 
0.008776500207956605 
0.000697362655547217 
-0.02678333011352497 
-1.653408313040394e-18 
-0.1087692188729478 
-0.09928561191909711 
0 
0.008752597018379243 
-0.01950959222377332 
0.02482283797428187 
-0.05252240297093239 
0.02558334227022262 
-0.008038654924496137 
-0.05903992631459734 
0.0316266401058226 
0.05411151107989902 
-0.02268839440113376 
-0.00968692584980611 
0.05534909128564546 
0.08306070141272737 
0.01157876614488325 
0.02344756223554447 
-0.03189519159234565 
-0.02880632529351007 
0.002919948131564785 
0.05162854534520098 
0.001859778150154297 
-0.00902946149153484 
0.04810881832850263 
0.02540221298775477 
-0.02177468224648759 
0.101343842916098 
0.002226969046805482 
0.008272715975441883 
0.04517467713161447 
0.01474746227172901 
0.03158938795210434 
0.01459609906079617 
0 
-4.969171476147378e-05 
0.01044281865283688 
0.00877794457104108 
0.004247844289630117 
0.05284009675376299 
-0.03564206026278469 
-0.08254510804084311 
0.085872423894087 
0.02834929168925086 
0.003463201864059662 
0.005613017416860915 
-0.1273837036329132 
-0.0450684075522517 
0.04269029205317685 
-0.01601762485415053 
-0.01417728707886724 
0.002136035842558721 
-0.06715683124198578 
0.02925709103259419 
0.004159373293072336 
-0.0009975591446765794 
0 
0.05073296307810753 
-0.06908846985188911 
0.2466503462919185 
0.004054368347917428 
0.04399905627401323 
-0.01921421560001652 
0.00805366409546281 
0.08839639324270744 
0.01842081608641183 
0.01658147754803606 
0.09614966682668234 
0.06588589088489678 
0.03784218761573677 
0.02111352070121688 
-0.04859190839893032 
0.01945927673662871 
-0.02045783852333123 
-0.01745077967492713 
0.07117613225731301 
0.01493634787996387 
0.0407921747752187 
-0.06047219528916974 
-0.03291151398135972 
-0.01450698420111558 
0.01014010494286812 
0.05557440606859125 
0.05579099001415513 
0.02705440742465879 
0.0259324064129433 
-0.001953282419210783 
0.04488459404643451 
0.004255436753965136 
0.01255309911197956 
0.03744752473044697 
0.01696651027384123 
-0.01385005138643781 
-0.01344403676753823 
0.006889221935827855 
0.007567556153737876 
-0.01868690181841706 
0.04933738786643592 
0.04538694291203046 
0.01655615529343866 
5.421010862427522e-20 
0.0003724640035724797 
-0.002462359661665899 
0.002090373280602237 
-0.01530586599888401 
0.02096846477681581 
-0.05897805667744096 
0.01964479595116507 
0 
0.01827307728090434 
0.004397184531712727 
-0.06173535192739775 
0.007595266065056424 
0.01428052605536122 
0.06386047247851924 
-0.007324624312933491 
-0.02132364173090262 
-0.01894229956364991 
0.002136035842558721 
0.07368657969939257 
-0.001882956255381866 
0.04241795492051643 
0.0009771135337122061 
0.02999110377937844 
0.02810588110862428 
-0.07036170908240853 
0 
3.523834251818827e-05 
0 
-6.505213034913027e-19 
0.01965003666345578 
0.02967104234919375 
0.04633995114633243 
0.0174454100963107 
-0.0008915073514860212 
-0.002847059060216632 
-0.0164845571344857 
-0.050097961335622 
-0.008375358897526967 
-0.07912921269907855 
-0.008513645558894169 
0.001049155378920495 
0.1053794643070881 
0.02733201398307646 
0.003748653697534153 
-0.01086899291541201 
0.02089679535108055 
0.1040947094091634 
-0.02195905094950827 
-0.07194149708083955 
0.004668546737721795 
-0.07627365266503941 
-0.02363610614891445 
0.02095667160380297 
0.06621322776785865 
-0.01551793612154359 
-0.04911172314015506 
-0.01847624586251797 
0.001176284306745569 
0.02697888916410726 
0.0408320269653098 
0.00628392343116383 
0 
0.03003036670028179 
0.004877209862458928 
0.003713834315290075 
0.04353874901727688 
-0.003711146200399276 
-1.771216330592826e-05 
0.05940553752402115 
0.05498614520932766 
0.02586558023083008 
-0.1029244858689038 
0.04063140124756181 
0.09549048055572003 
0.009711516719495342 
0.01336183757522815 
0.001365418448429089 
-0.01464521858879431 
-0.01840124529119739 
0.007554041565517783 
-0.05844012920621865 
0.008777284698766791 
0.0401101058252764 
0.03186626344798961 
0.01546653634598777 
-0.0252649867359148 
0.0007519471008037252 
-0.08936523856526869 
-0.02637374042554162 
0.01080338220443962 
0.02626602128113123 
0.03127252326586007 
-0.005087914755177049 
0.003251473241639288 
0.004319604129510521 
-0.05825121873469568 
0.009083900575981685 
-0.007724329592317931 
0.006570229956218403 
0.001773885025268744 
-0.0662398573174558 
-0.04233049848964446 
0.1468890469800294 
0.1590228039085266 
0.02597564242427552 
0.02609469466952256 
0.01565120117655768 
0.01273296290205147 
0.03264330317945663 
-0.003913981868302174 
-0.009692360281670571 
0.05969189304259391 
-0.04093634412981013 
0.009573978589403636 
0.01153867608537186 
-0.04314777760902937 
0.004877209862458926 
0.01018436881802063 
0.007329450636311026 
-0.003722231432628004 
0.001531110008495861 
-0.01657531710903078 
0.01307264318196444 
-1.355252715606881e-20 
-0.02378660978407917 
-0.07375275599041961 
-0.008511313731184396 
0.02328906787947674 
-0.02697059203041074 
0.05695554978344766 
-0.07686328633618748 
-0.0002121447567881045 
-0.01773588399798846 
0.01269738756568838 
0.004744852051918081 
-0.06419263732149989 
0.1191838521377709 
0.001154038794287925 
0.1027112425782175 
-0.0006999083958267665 
0.02311911463597105 
-0.03660904505588114 
0.01738283601779816 
0 
0.1164951894454177 
0.08984584133935866 
0.003251473241639287 
0.1284702164864473 
0.05893136606330394 
-0.01869122506276726 
0.005080499198763689 
-0.04486214941896384 
0.003248802107413748 
0.03136305411453761 
0.0143928930624652 
-0.002908586155579689 
0.03980673416651558 
0.0007584621852904243 
0.03495647018171411 
-0.004611700599770671 
0.024452152624148 
0.004205199288200125 
-0.009261622927669726 
-0.2731006696713439 
-3.523657060577889e-19 
0.05195307438560226 
0.0003852268853936644 
-0.001770110991589588 
0.00992974201922529 
-0.01966841296588353 
0.08196996295851089 
0.04109306700021548 
-0.0213367668506396 
-0.004271918344735201 
-0.03254451947167312 
0.08746798689603041 
0.1139039418849888 
0.02631565914842939 
0.07279444691998926 
0.1554424709357567 
0.0023310375250051 
0.04640591372256074 
0.05945223191189755 
0.02687430423501092 
0.05408389598262344 
0.02469354828229794 
-0.1117365396111611 
-0.2575519548546426 
0.02387328971581605 
0.1653371477773227 
-0.2441841881829163 
-0.01953329923340489 
-0.01988281943851939 
-0.004254261282068859 
0 
-0.1103430817656089 
-0.07064792633956656 
0.1429808491151409 
-0.04542337988443973 
-0.06322539317406675 
-0.3442599955084404 
0.03386192760772976 
-0.02985311159840622 
-0.07471865374215786 
0.07457056717289172 
-0.1838869813319987 
0 
-0.1214286301903209 
0.0257884343437328 
0 
-0.02605784358248572 
-0.04685344586592211 
-0.1936412624501353 
0 
-0.4607296585115292 
0.007433506063255706 
0.005058209728201882 
0.06279024493246702 
-0.08991741655988214 
-0.05233950731058235 
-0.5323702261146492 
0.003945886610875088 
-0.007054639636359042 
0.0138388214735585 
0 
0 
-0.001178899735649154 
0.03639982594611336 
-0.03099282923332893 
-0.0691150731501864 
0.006469867270126536 
-0.03961733144235785 
0.08885081789504332 
0.03574757938807008 
0.02698203994368325 
-0.005659241875949616 
0.008095344659586256 
0.01182325192273359 
0.04236236775590808 
0.001261397511241817 
0 
0.005776721148756471 
0.03403031538286078 
0.01173739318565698 
-0.02017727662783668 
0.005989442905116569 
0.1127055391448547 
-0.06865262210590554 
0 
0.001433816552929356 
0.005959740221113801 
0.003890757660170315 
0 
0.002997625784711632 
0.02448297512645501 
0.06386637755932963 
0.009736014288754037 
-0.007380959119118262 
0.01805631930541078 
-0.007892276064132784 
-0.04689991380352793 
-0.004876328730225693 
0.003599072031562144 
0.01148017762383007 
0.006030283225285629 
-0.01517623538164726 
0.04506051704875904 
0.0231017159305494 
0.003889396214312252 
0.00194300341114967 
-0.03322470113585848 
0.01552482759284492 
0 
0.003162084711869157 
0 
0.0247681026628886 
0.03821512588002263 
-0.1508942433726999 
0.01953438291427181 
-0.05101252102186331 
0.06744105428519735 
0.01593692810934314 
-0.0007672463349576418 
-0.009482736092540947 
0 
0 
-0.2671540876493839 
-0.005171712812250967 
0.03460832204798494 
0.01760703955105153 
0.04181167509308754 
0.0837973068515812 
0.01568866404855573 
0.00987602998108889 
-0.0211626633295622 
0 
-0.02184218547769968 
-0.1931248194443727 
0.02738428433037504 
-0.008210666265808594 
-0.00478651956635811 
-0.007429218585051098 
-0.001456496511767474 
0.02771932951206236 
-0.00357524767224168 
0.02707530315514311 
0.03423989006583392 
0 
0.004643669263826659 
0.02575375258684314 
0.03406234528938549 
0.003089655337314894 
-0.02381640318121292 
-0.02414300736670111 
0.00865379646826284 
0.006260519742306102 
5.421010862427522e-20 
-0.04135246720659162 
0.08948031166610487 
-0.008115987135166558 
-0.002943064401576957 
0.00231956999037614 
0.01675134729913798 
0 
0.06526783406260329 
-0.004977585577748125 
0.003811487839019201 
0.001704653270206455 
0.0716529862576803 
-0.002236393037742682 
-0.01115000188969252 
-0.01736385623574121 
-0.08104152701900103 
0.05864303609571473 
-0.03376293917894274 
0.05501950582755706 
-0.009959729537839825 
-0.1248116786785379 
0.009310608672614207 
0.0001395550039069374 
0 
-0.001172542549111141 
-0.01699602865548909 
0.00177805741191739 
0.03268613079357654 
0.007201944512939346 
0.03077558779438368 
-0.02404425598692968 
-0.03307816519050375 
-0.01751985269249621 
-0.0120547341087517 
-0.1044142599378831 
0.1608741254799217 
0 
0 
0.0001646121500321394 
-0.05031809955887639 
-0.06105240911064799 
-0.003993205522969739 
0.1242230062091427 
0.03171173944515829 
0 
0.0004245975515116919 
0 
-0.0001962149031375772 
0.04390735196472745 
0.01141331297657804 
-0.1317460105869975 
0.009130431785854012 
0.01217694480114277 
-0.06260303507652754 
0 
0.00920949974428175 
0.007490043743849787 
-0.05297542925212083 
-0.03074843027367335 
0.09149263041448387 
0 
-0.005542972320773871 
0.01154066940286364 
0.004551161483846535 
0.009814845918901412 
-0.01435256345308773 
-0.01066946621996404 
0.03770510171928387 
0 
0 
-0.02598160601100939 
0 
0.002101325903975705 
0.01044879430240982 
0 
0 
-0.01695768458181241 
0 
-0.1153517333177803 
0.09337886264073963 
-0.0008479387693329884 
-0.03746044150790105 
0.0879133606574795 
0.01351738883123436 
0.05840335527161484 
0.008284560872694241 
-0.01380536982159018 
-0.01348477448298203 
-1.084202172485504e-19 
0 
0.05400251015020085 
0.0009409097785992267 
0.01239263551627496 
0 
0.05863136735109226 
-0.03150535781078247 
0.05255789556041388 
0 
0.006410541230785534 
0.01587519903537551 
-0.0353595134179589 
0.02338535025306947 
0 
0.01641951842429945 
0.02451280468200943 
0.007134801433496558 
0.01347472590578697 
0.0490479598478548 
0.01612890686564248 
0.0623028659403673 
0.009869572618176189 
0 
0.05886529806913005 
0.004614939169001922 
-0.03203565945357507 
0.04355153604789461 
0 
0.05376815024264803 
-0.05673306315425651 
3.591419696358233e-19 
0.00397716806019889 
0.01291466890971814 
0 
-0.03202522351281818 
0 
-0.004429263769126251 
0.02683421830925128 
-0.001364104816125355 
0.04344271957372573 
0.0165218709990278 
0.06122321915169178 
-0.03460681591151878 
-0.007720556324253642 
-0.004190068137621229 
0.007428737385758925 
0.004291889643748764 
0.0006651282084903691 
0.004076592046359666 
0.04474369386954376 
-0.001240398013314326 
0.05144276729036718 
-0.01296489996934911 
0.01803885994910084 
0.0589030503575519 
-0.05149202976475098 
-0.01636285915140633 
-0.07251833474883564 
-0.008504895266244273 
0.005072029664096138 
-0.01188392840055689 
0 
0.02894396893837394 
-0.02623804318836681 
0 
-0.1027724778798638 
0 
-0.03371271377496202 
-0.06140020104345586 
0.02292935815504343 
0 
0 
0 
0 
0 
0 
0 
0 
0 
0 
0 
0 
0 
0 
0.02397716622692891 
0 
0 
0 
0 
0 
0 
0 
0 
0 
0 
0 
0 
0 
0 
0 
0 
0 
0 
0 
-0.03024553206765064 
-0.04303832149089083 
-0.005203935679224335 
-0.03587754972703946 
0.01562699397173002 
-0.1911394605998224 
0 
-0.00986928131931341 
0.001576962550960614 
0 
-0.002125664964981735 
0 
0.01255814902089446 
-0.05694564649755511 
0 
0 
0.004248032072113362 
-0.00394042717512308 
0.0005953092465514599 
-0.05078264266196823 
-0.08526105804410244 
0.06699869056908477 
0 
0.0768892327675893 
0.00244153771732818 
0.00229238062760662 
-2.710505431213761e-19 
-0.01130070472046611 
0 
0 
0 
0.05566105250239513 
-0.1522547884577954 
0 
-0.07409919939502382 
-0.0269397303383175 
-0.02579005156790777 
-0.01554613957924507 
2.168404344971009e-19 
-0.008804924988682515 
-0.01419157593806467 
0.03149459568836932 
0.03091463475305046 
0.0117478061091791 
0.00708796452090566 
-0.005257813553245944 
-0.0003627492201957834 
0.07491628492601175 
0 
0 
0 
-0.07786824712866648 
-0.03068268226578549 
-0.001909467081902509 
-0.02283562892811421 
-0.01261144917962014 
0 
-6.776263578034403e-21 
0 
0 
0.01642736655017705 
-0.0008085623292824827 
0.0565832060261567 
-0.01460664400167053 
-0.08021978055627267 
0 
-0.02048706734607095 
-0.01804494761298016 
0.09563358157709728 
0.00309246408611542 
0 
2.168404344971009e-19 
0 
0.004166861124284531 
-0.05810977081315701 
0 
-0.02632092399518033 
0 
-0.04354381985300441 
0 
0.01373648766538232 
-0.009438511327019635 
0 
0.05829135054524658 
0 
0 
0 
0.001392788569122681 
-0.1386804766587106 
0.005384236284045885 
0.005786761629890159 
0.0622934275702438 
-0.0382857549166947 
-0.1052800060125923 
-2.981555974335137e-19 
-0.09171766541326393 
-0.01421152903510893 
-0.3424219425877268 
-0.04098987152311508 
-0.0004410779156841684 
0 
-0.02657307096218678 
0.03220021743613672 
-0.01176780060649528 
-0.2057231755430974 
-0.03122714499749856 
-0.04459234247293228 
0.0714969351644392 
-0.02228867380900579 
0 
0.06146094882131023 
-0.01677912862642328 
0.02023684067547859 
0.01659077799688782 
0.1444438999782054 
-0.06299697668809565 
0 
0 
0.2409292908080256 
-0.09892351298650919 
0.01333756432389318 
0 
0.1112886412433003 
0 
0 
-0.002530287253109849 
0.01988301446977964 
0 
0 
-0.1622815530433742 
-0.01849986813638628 
-0.01609354647139401 
-0.08812246682704186 
0 
-0.08469672310181151 
-0.1129718801678779 
0 
-0.00209625457839106 
0.007585264062929442 
0 
-0.03293038905880356 
0.03585736529612607 
-0.08972328092630072 
-0.0600394360470291 
0.08247916147062169 
-0.3194871027989606 
3.794707603699266e-19 
0.03212074635126214 
-0.3799182188489345 
-0.01632980141845303 
0 
0 
-0.05886839367680465 
0 
0.04555955471446994 
0.1116553225368137 
0.04092338337503845 
0.01084170442692954 
0.02233324805296703 
0 
0 
0 
0 
-0.005704206527201112 
0.03466858693535387 
0 
0.009347745417716156 
0.06899880096457621 
-0.02703308610935527 
0.03592107599475318 
0.07377434265930097 
0.01775305106808502 
0.03860797055975979 
-0.009359037359690483 
-0.003852076036750081 
0.04161073787313705 
0 
0.008765372321198941 
0 
0.04816097593870755 
0.009552012016747356 
0.002028400458848771 
-0.03170193733570488 
0.01391962062412214 
0.01836309566367608 
0.0865456162333972 
0.1202970354182664 
0 
0.03991447706824115 
0 
-0.06061539099588319 
0.0190524397279614 
-0.05228298820166058 
0.04281764364327498 
0.01076659148783322 
0.006237639382354328 
0.02382990664167633 
-0.05658477943013462 
-0.005967703778673701 
-0.05062514516315612 
-0.06462317545365898 
-0.03372210715281516 
-0.008409685173233157 
-0.07248147733463271 
-0.04014090790444896 
-0.07161869641285748 
-0.01785634379482294 
-0.01501857684721107 
0.07915899967749612 
-0.01869530326029058 
0.005883530196572364 
0.02661696122202993 
0.001092423773799257 
-0.07371476718736866 
-0.04529794943238408 
-0.004390460780478112 
0.008895466694998485 
0.05825297732450467 
-0.03210269403062113 
-0.004881506045144017 
-0.05362735069690253 
-0.08438417565664788 
0.002058097149821482 
-0.05531268599195845 
-0.04152304930794277 
-0.05062402693454253 
-0.05699576437177936 
-0.07341234227528283 
-0.3468659495981583 
-0.08705359523833597 
-0.02082175132218913 
-0.04014090790444896 
0.06094862490140324 
0.03796075713394326 
0.03746143922557119 
0.004063178502533502 
-0.01460646033750304 
-0.05001951725415203 
0.03985020556561357 
-0.0561278949714411 
0.08465427258487132 
-0.01434694701642866 
0.007382276222972562 
0 
-9.282761643539073e-05 
0.001330438929093404 
0.03496791552412488 
0.02163827361147198 
0.00571613647025217 
0.02821177571238483 
-0.01322169699427353 
0.0007638363866807118 
0.001724156712083513 
0.01600987774121839 
0.005716136470252175 
0 
-0.01788718374959721 
0 
0.005716136470252175 
-0.01766120972964292 
0.07789797227432144 
-0.1556030517815771 
-0.05522086836220839 
0.002858068235126089 
-0.0808689937199646 
0.005716136470252175 
-0.0155726999904859 
0.009615853569293179 
0.004363768348134647 
0 
-0.04934557223515465 
-0.004928258057636917 
0.01058388258173788 
0.0381452984595755 
0.0817277648351198 
-0.008428757107529519 
-0.07977390089384373 
0.0763037498960719 
0.04904645961416762 
-0.1072878345748107 
0.005716136470252175 
0.115740020066472 
0.0107639211411869 
0.0337416258754869 
-0.03454770754696833 
0.06342600896391258 
-0.1074131858129853 
0.1318216501918862 
0.005716136470252175 
0.01664323083320667 
0.01143227294050435 
0.01143227294050435 
0.009212426384671084 
-0.007807371229315948 
-0.008237682662382825 
-0.009704439847623732 
0.005716136470252172 
-0.07175674023239051 
0.04670562021017516 
0.01862426529372374 
0.005716136470252175 
-0.00720815681363538 
-0.02036312417479146 
0.005716136470252175 
0.01591031353834292 
-0.02053062315965787 
-0.007804919726021682 
-0.04950306621808721 
0.1032313662245778 
0.01949523510431679 
0.001995285350185161 
-0.003217968099310093 
0.004759055611830167 
0.1107061649573811 
0.04919738859114809 
0.04306776438808581 
-0.05028603736162417 
-0.06450211257303783 
0.04719699269421618 
0 
0.08131433656734123 
0.03107567288998302 
-0.04473622121327803 
-0.04951864851543319 
-0.1171010023095293 
-0.1661225340537647 
0.0106897593253519 
-0.1069331635079597 
0.02504153353461941 
0.005716136470252175 
0.04201848881334266 
-0.00179767451000345 
0.0405608760359231 
0.008970613277677135 
0.09332558805562835 
0 
-0.04745012539348454 
0 
0 
0.003280533659291967 
0 
0.01739297676083985 
0.06190792638610444 
0.001862437720783257 
0 
0.007687529063083383 
0.01630912735537159 
-0.01899126231302468 
0 
0 
0 
0 
-0.01429684963379208 
0 
-0.001009379091538086 
0.007533910891980138 
0.03663247827491702 
0.02296936997817822 
0 
0.02634402854726877 
0.001144002977346664 
-0.03699331400223102 
0.02409365280759158 
-0.008804127135047083 
0.02544381851517199 
0.015619901798502 
-0.2272852871281951 
0 
1.084202172485504e-19 
0 
-0.0749579425125016 
0.006056795505371797 
-0.022979033101927 
-0.09058381899838655 
-0.0007205460352548736 
0 
0.01156009669589579 
0 
0.0626128785081265 
0.07606240059197437 
-0.0005722901030232382 
0 
0.05369817866638407 
0 
0 
0 
0.008958276038192516 
0 
0.0350392409382178 
-0.004049982229243319 
0.04301939396073316 
0.00287728225009906 
0 
-0.003829993596420212 
-0.01024791762493461 
-0.002850485573646124 
0.02078638416188403 
0.03247892666291025 
-0.005757484080199414 
0.0114950474985656 
0.002372118038661108 
0 
0.01430658916938351 
0.008925141721747467 
0 
0.1619255869718856 
0.01431148711824831 
0.0103255749493698 
-0.0130485945588681 
0.01298974616546011 
-0.01551959989385917 
0.02944180780152105 
0.05141324113337702 
0.01966810979219434 
-0.00630242201474627 
0.01597448893760036 
0.05718127510672608 
0.01085932921674343 
0 
0.005129537765815453 
0.01999454908939242 
0 
-0.008312251702219595 
-0.0006880576077635616 
-0.004276036350487372 
0 
0.002275865919344655 
-5.421010862427522e-20 
0.0001646762056371998 
0 
0 
0.01090513384016303 
0.0897650975481612 
0.007708607152094318 
0.02696170514830277 
5.421010862427522e-20 
-0.01477262966274744 
0.0384667637988956 
0.002413283535035182 
0.002370936782667856 
0.002413283535035181 
-0.1305811816269444 
0.005430041132833759 
0.08484447708140816 
8.565120745064641e-05 
0.006641224739931204 
0 
-0.02681326561285401 
0 
-0.004734637067368073 
0.0003292243000642793 
-0.0003506667467892105 
0.001321125051923558 
-0.0486915999456244 
0.007442890024828931 
0.01711335545957187 
0 
0 
0 
0.1051007183498687 
0.004666452907757899 
0 
0 
0.001966187447734659 
0 
0 
0.01343359636822133 
0.03393956632958658 
-0.01004669761583182 
0 
0.002577738384018601 
0.01943759298038506 
0 
-0.01669403503753332 
-0.06062221976237664 
-0.04676608404493277 
0.02719124285493975 
-0.1190754539456969 
0.01527385186310729 
0 
-0.01068424798998752 
-0.07377495608835927 
-0.1426693576644885 
0.05255196873761245 
0.1143065525395349 
-0.07778377424319799 
0.04322236359294497 
0.01576164966036304 
0.0005712688401943259 
0.01178814580045411 
0 
0.02966987039588016 
0.07372612388247218 
0.0004229312149823962 
0.04142285621756896 
0 
-0.0006325200611137845 
0.04451298080243445 
-0.007444364250864817 
-0.07409166502012662 
0.02142829154384636 
-0.09354986826059598 
0.01689754189832379 
0 
0.0001646121500321395 
0.02117516418783069 
0 
0.007670567669376763 
0.05080628641182481 
0.001759255529974172 
0.00279263214370498 
0.01026681395902771 
0.01160519127923898 
0.07602734254985706 
0.07930277931473806 
0.0004305029817241479 
0.0025777383840186 
-0.000991961711821722 
0 
0.01208481364882124 
0 
0.02197820160338037 
-0.08944354764232919 
0.01814758074866412 
-0.004123067310010504 
0.006143679989643694 
0.06853270004166154 
0 
0.0003118645597397045 
-0.04390300452927456 
-0.01850693870323538 
-0.1116527322269399 
0 
0 
0 
0 
0.002435608859539368 
0.007306826578618107 
0.006767980542475955 
0.002507383775059982 
-0.03002566535822543 
-0.01678615871978199 
-0.03787562559252527 
-0.003679460788374419 
0.0002931538245649678 
0.0005908034266061097 
0 
-0.01756986640619394 
0.004871217719078736 
-0.07688423918160149 
0.01970534897514975 
-0.01599955492817538 
-0.01800145070676658 
0.02183607092552529 
-0.002200467928681506 
-0.002696328138379182 
-0.08224429679561482 
0.02014418205137325 
-0.03045689571038785 
-0.005540991646246374 
-0.04076598370784588 
-0.009737307974720345 
0.02289828624279159 
0.08480166236811433 
0.05385702062351011 
0.008842392690863708 
0.08243900863312266 
-0.08047372234560488 
0.02939664597400644 
-0.005540991646246368 
-0.001408372191164788 
0.03096070868157266 
-0.01610141480447429 
0.01044460467150948 
0.01129793958125172 
-0.04919098803755684 
0.1024668817649909 
0.1256624136384689 
0.0128045767288407 
-0.1542414016597915 
0.08028791558798964 
-0.005908951237499194 
-0.05174711063929351 
0.0272216669776708 
0.01153108435406199 
0.001375910568606291 
0.01100188804936629 
-0.02169722897339937 
0.01549845122202442 
0.01069960434500521 
0.0481851939904788 
-0.1367502367577091 
0.03658735788180262 
-0.008064615234842653 
0.02184932637636505 
-0.01055612878480141 
0.03534458168883345 
0.04119036309292341 
0.02539602130453986 
0.03214989475014047 
-0.00530168281559607 
0.01517370361880277 
-0.01519295424999732 
0.01204025191126624 
0.03058411020033492 
-0.01151970440817842 
0.01070809397728457 
0 
0.088410415425119 
0.06737965738273127 
0.01557709216105858 
0.005489757621691224 
0.1508123073823723 
0.0474276689285516 
0 
0.0474276689285516 
0 
0.0474276689285516 
0 
-5.963111948670274e-19 
-0.005748364834228149 
0.03069396474592061 
-0.04974898013500746 
0.05631122384352931 
0.2110908456233754 
0.004137366594382972 
0.001611765091623096 
0.006946170635606199 
0.0005744613821852904 
0.04355405020921208 
0.004678991670462818 
-0.1239680766130328 
0.1278099333132883 
0.01747360631517938 
-0.004320258634504148 
-0.04341029823508424 
-0.009561013537884692 
5.421010862427522e-20 
0.102612680357012 
0.03328749567247187 
0.05738220526715239 
0.05098098333761444 
-0.04243169406280001 
0.008770635442753624 
0.06945754235145832 
0.01771920107006265 
0.05700681631945484 
0.06601959768945767 
-0.09550980295293439 
0.01339051090781269 
0.02796197941080062 
0.02216082665480882 
-0.06308110907021745 
0.03670290277088738 
0.104570670833889 
-0.3993001998078355 
-0.0007940312048149098 
0 
0.05346020425698615 
0.03568921125006243 
0.06527035787958964 
0 
0.03639779913400619 
0 
-1.084202172485504e-19 
0 
-0.05339911491435884 
0.004267103283442057 
-0.02089750743076321 
-0.05439342935918262 
-0.003603518468143526 
0 
-0.01790135898803928 
0.06038491043201025 
-0.0005862712745555706 
0.02007409762097005 
0.003251473241639289 
0.01541920911982762 
0.09465427161577376 
-0.1337346130033363 
0 
-2.710505431213761e-20 
-0.01874804274931788 
-0.003620942236211024 
-0.02135903875868921 
-0.1121007706020957 
0.01839393652885877 
0.04055417646333009 
0.01842162353041515 
0 
-0.0002811060870722247 
-0.004348431378705117 
0 
-0.01274161243523226 
0.04510030547446904 
0.008383056733429728 
-0.07963077578529616 
0.008766943358885174 
-0.1420823539848156 
0.08284532275622096 
-0.01911295957546508 
-0.01558382909419905 
-0.06076280452662493 
0 
-0.08928431732112435 
0.01907655423716256 
-0.1024715428812255 
-0.1508683854503114 
0.04389782344819904 
-0.09086468177383428 
-0.01665733560345546 
-0.1793689002259259 
0 
0 
-0.1671478081025935 
-0.0976184824546894 
-0.1475262871524983 
0.06086351235789564 
-0.06712358918139073 
0.03664672630008044 
0.0630500178284218 
-0.0004507927630456231 
-0.1988099252694767 
0 
0.08915247659878861 
0.03574700607757322 
-0.1508781002976731 
0 
0.01761184478123977 
0.01523734849965609 
0.1881794271943908 
0.005148800515734572 
-0.002147199297532648 
-0.143300311115085 
0.03868407690451753 
0.01103871327186513 
0.01356648531584629 
-0.000844067928153736 
0.0475294190820978 
0 
0.02529567948478441 
0.07795956437189322 
0.002908718032370644 
0.01830615752714621 
-0.04474141196869613 
0.01701116830919356 
0.01345553353737211 
0.1139338904502768 
0.02720014426609387 
0.02162209530476809 
0 
0.003844878334802126 
-0.001935724984338065 
0.006767520794792772 
-0.002614112983242248 
0.03237142711222891 
0 
0.09656047088077074 
-0.009862138553321329 
0.005674190034447467 
0.003501844935406638 
0.03886695938509542 
0.1037730462113548 
0.018874666239773 
0.01787229315773568 
0.06809326290224164 
0.01833524727900968 
-0.0004327954169118678 
-0.008578272619513525 
0 
0 
0 
0 
0.005700753390174507 
2.668153783851046e-20 
0.04831938443957398 
-0.01901283404856644 
0.02177973098774053 
0 
0.000680887403394414 
0.01152653362728384 
0.0004999856482090117 
0.0135289373974097 
0 
0 
-0.05425478091984719 
0.1254647850723332 
-0.00133443010030091 
-0.01315717795533669 
0.02455386031553029 
-6.776263578034403e-20 
-0.04241506090887721 
0.03113692038546625 
0 
-0.001209194816952721 
0.04102884075009126 
0.003712012220721342 
-0.01669716630044576 
0.01946379673035835 
0 
0.02637279073651522 
-0.0527334431989086 
0 
0.02174666755899851 
0.002932682118992154 
0.01391512670175648 
-0.0247942067217499 
0.004020078496997255 
0.003584597952497119 
-1.694065894508601e-19 
0.000380907633167779 
0 
0 
0.04262293577732464 
-0.04846156436265428 
0.01084787596372285 
0.0347669595875397 
0.07383121275598585 
-0.001138219852913016 
-0.02018851947767438 
-0.004121398298554945 
-0.03702664346437325 
0.00322556073894975 
-0.01180043174976068 
-2.818925648462312e-18 
-0.02188290871226616 
-3.686287386450715e-18 
-2.818925648462312e-18 
-2.818925648462312e-18 
0 
-0.07481641756002999 
0.003656163777359772 
0.07387377646586733 
-0.09671171929923893 
0 
0 
0.02003620327299483 
-0.01951833268913365 
0.007004387484285732 
0.02766610308765825 
0.1169405644097311 
-2.844143970936511e-05 
-0.01807888921326064 
-0.03343821683753263 
-0.06010691384831733 
0 
0.0003448724998693439 
0.01479742698162643 
0.04645570641142811 
0.09349041949509036 
-0.002127380691578609 
-0.001660319650753059 
0.002037100029864415 
-0.02268077579270195 
0.002260921444249617 
-0.007471769439683328 
-0.0273863368151306 
0.08247941979470272 
-0.000294473682411501 
-0.004016395659201757 
-0.05633750742667251 
0.04818277984919012 
0.004536957476139925 
0 
-0.0007944073809944168 
0.004850619750303024 
0 
-0.04508890734163461 
0.00189245689203351 
-0.02303376831067531 
0.03716427198324664 
0 
0.04048937501567842 
-0.004781717925382573 
0.05521997167954816 
-8.131516293641283e-20 
0.03675077122687212 
0 
-0.006601584888497262 
0.02271247991583422 
-0.0007901664560409016 
-0.03100561902000432 
-0.000183510096892004 
0.008014949572831893 
-0.005278013370969606 
0.007544075663634213 
-0.01537811405722176 
0.1015240258647622 
0.01122855181985006 
-0.002208901093129147 
0.05039947137872115 
0 
-0.009872862339786247 
0.03628612485491626 
0.0007593878404983921 
0.002260921444249617 
0.02754917293530141 
0.01083753717910278 
0.02497478891239913 
-0.01314946642966922 
-0.008371170738502824 
0.03759118624793902 
-0.03044049493563334 
0.02632363317101572 
-0.02130424240660431 
-0.0107690787779012 
0.005143409535401631 
0 
0.09610506367945267 
0.004521842888499235 
2.452840650693608e-05 
-0.0117037653465561 
0 
0.004900780336582783 
0.0807960820176802 
-0.01519519836118065 
0 
0 
-0.004244025730677453 
0.002261602160115265 
0.04871133299816141 
0.005658031331018428 
-0.01448102854455766 
0.02920860790408542 
-0.09368141505644426 
0 
-0.02917072755945932 
0 
-0.002454677498346996 
0 
0 
0 
0 
0 
0 
-1.626303258728257e-19 
-0.004722083683790575 
0.002260921444249617 
0.03635666528945004 
0.03847425899393908 
-0.09818953013996806 
0 
-0.01089469195234853 
0.002332391705633471 
0.007542416104259818 
0.03429561641825268 
-0.026507090994883 
0.03082565103831805 
-0.04906328244003899 
0.002260921444249617 
1.084202172485504e-19 
0 
0.0140689649086346 
0.07924425065436964 
-0.03292985835455776 
-9.282761643539074e-05 
0.03376239254963476 
-0.00104960578740126 
0.001996726413269437 
-0.0162917095188871 
-0.02308594596363268 
0.004521842888499235 
-1.084202172485504e-19 
1.084202172485504e-19 
-0.07868146716910143 
-0.004405426133829491 
0 
0.009321234677448876 
0.05248282178984944 
-0.007223064112571054 
-0.0794417195290911 
0 
-0.02524290223999934 
0 
-0.02309449191551405 
0.0169968865162999 
0.04560648244098353 
0.01091370825689926 
0.1171405339933657 
0.004628029666593453 
0.01271742433362459 
0.01565150890644052 
0.03984968382616152 
0 
-1.084202172485504e-19 
0 
-0.006872034835273383 
0.03307277399189965 
0.003116894071955587 
0.01030496407290241 
-0.0165642035533763 
0 
-0.08577399767621766 
-0.003082980699059795 
0.004582459866514534 
0.02258266691014495 
0.0486027928110617 
0.05806383658077268 
0.001367971042533183 
0.02145155201526445 
0 
0.004900515527276315 
-0.01505327526380378 
0 
-0.00865795336580524 
0 
-0.0005540175342340959 
-0.03512075690719835 
-0.09863863752427222 
-0.006746254516729008 
0.01171386688572324 
0.01247939612071249 
0.001528603919310821 
-0.006055810248584541 
0.04156898360987369 
-0.04453491859120941 
0.02316262871387326 
0.01309677012112008 
0 
-1.355252715606881e-20 
0.09699093495553998 
0 
-0.00543320467243231 
0.001702490297469812 
0 
-0.008691162256479137 
6.816695645834876e-06 
-1.084202172485504e-19 
-0.02217319642667449 
-0.03063695798569649 
-0.02217319642667449 
-0.0258972720890494 
-0.02959195144288935 
-0.02228070974489477 
-0.01609565664278223 
-0.03070865469011762 
-0.01852428739527533 
-0.002712471027753457 
-0.02316471103217312 
-0.04434639285334897 
-0.01178343891406703 
0.02920909290769217 
0.007931891713236923 
-0.04002661151118522 
0.01107401642729358 
-0.02345509256165085 
0.04292573267152366 
-0.01610039435588936 
0.02126833211259386 
-0.00332991038824257 
0.0679876667334305 
0 
0 
-0.00717429659617321 
0.01016283808460099 
0.0002154616906891351 
-0.3389378133643162 
-0.004087835691270555 
-0.1429471233063458 
0.01098250668481148 
0.04513601628457138 
0 
-0.01080802143159004 
-0.04681363368747554 
-0.03841751317991722 
-0.2585773979576481 
-0.5979845639027659 
-0.0005859892851492624 
-0.02332272586271191 
0.01391781195599042 
-0.02231169293289573 
-2.168404344971009e-19 
0 
0 
-0.05065543097357821 
0.0796625114357585 
0 
0.04802765139617153 
-0.1436785681857921 
-0.02867372518581815 
0.0220702861844238 
-0.1360918575882757 
-0.1944699056603327 
-0.1079544941602487 
-1.084202172485504e-19 
0 
-0.02040305825664419 
0 
0 
-0.09846874526406824 
0.002811558455506891 
0.01017320726283318 
0 
0 
0.005222904618168661 
0 
-1.355252715606881e-20 
-0.009691314424358093 
0 
-0.0009190167979557606 
-0.04830241291826792 
0.025349688641391 
0 
0.0108854326922696 
0 
0 
0 
0 
0 
1.694065894508601e-21 
-0.0009474582376651245 
0.004773522638721951 
0.008646555732045563 
0.01819795966696447 
0 
-2.710505431213761e-20 
0 
0 
0.09879169027337362 
0.0004401183531679947 
-1.524659305057741e-19 
0 
0 
0 
0 
0 
-0.004595083989778807 
0 
0 
0 
0.001115703796674457 
-0.01206531697756822 
0 
0.005054407790648172 
0 
0 
0 
0 
-0.002638032946271226 
0.01569292586783955 
0.005412778966107739 
6.776263578034403e-21 
0 
0.006872593724178792 
0 
0.0008770929883186762 
0.003081484584481985 
0.01849969649716154 
0 
0 
0 
-0.0146969703054466 
0 
0 
0.001877153434297448 
0.02161960542277513 
0.01294091441588504 
0 
0 
-0.0003221863346644131 
0.0555225556754811 
0 
-0.0006622835364622087 
0.00890243452653988 
0 
0 
0 
0 
0.003948314077569788 
-0.02632443433993152 
0 
-0.0003722525338223473 
0.02967518414256018 
0.01366052386531981 
0 
0.001267546809473775 
-5.688287941873023e-05 
0 
0.006928855565567581 
0 
0.0004993934108469112 
0 
0 
0 
0.03348369758610791 
0.00186849493329924 
0.0005150972503574817 
-0.001791691075167212 
0.05315635955299607 
0 
0 
0 
0.000140293100461215 
0.02363818101601553 
0 
0 
0.003736989866598481 
0 
0.001416403190975491 
-0.0003627492201957834 
0.001877153434297448 
0 
0.01291402629372334 
6.776263578034403e-21 
0 
0 
0 
0 
0.02012156403247085 
-1.18584612615602e-20 
0.01056996919357103 
0.001087773287111907 
-0.03974538794690622 
0 
-2.844143970936511e-05 
0 
0 
0 
0 
1.355252715606881e-20 
0 
0.04374208586884178 
-0.03513288445981253 
0 
0 
0 
-0.03080522970320508 
0 
0.01182025924467755 
0.01989561526877449 
0 
0 
0.03403014931774116 
0.001951448822413762 
-0.006656611541373777 
0 
0.000184792230532127 
0.004840081666231232 
2.168404344971009e-19 
0 
0 
0 
0 
0 
-0.122947722377251 
0 
0 
0 
1.084202172485504e-19 
0.03309097155675371 
0.003282975361711155 
0.004847591473939721 
0 
-0.003586576613028822 
0 
0.0155577359784574 
0 
-0.01651374743518537 
0.02741923779367993 
0 
0 
5.41934505928032e-05 
0.001592845358784897 
0 
0.005431301951435001 
0.0004401183531679947 
0 
0.000140293100461215 
0 
0 
0 
0 
0.003825751659670341 
0 
0 
0.03787070082891938 
-0.003215812617887401 
0.01162211423711225 
0.005879660962460064 
0.001239926590636667 
0 
0.00372266853293295 
0 
0 
-0.001866475035620887 
0.0528387840832566 
0 
0.003836080146218597 
0 
0.004067596605580108 
0.0004401183531679942 
0.005360871213136004 
0 
0.0004401183531679944 
-2.032879073410321e-20 
0 
0 
0.003722241876753535 
0 
0 
-0.0008255909094495422 
-0.006819635798662056 
-0.1134152851933605 
0 
0 
0.0009581366363416864 
0 
0 
0 
0.01050139289296664 
0.006415211158316949 
0.007584846611220071 
0.00268322813727867 
-9.952927482765312e-05 
0 
0 
0.0007004528862973936 
0 
0 
-6.776263578034403e-20 
0.0005335624673644685 
0.0005335624673644685 
0.04953225616911395 
0 
0.0005335624673644685 
0 
0 
0.008567234720671543 
0.0169729824301475 
0 
0 
0 
-0.02110337169896509 
0 
-0.0003231061722296936 
0.001620450560450829 
0.001067124934728938 
0 
-2.710505431213761e-20 
0.04892490914124153 
0 
0 
0.00231727178746544 
-2.844143970936511e-05 
0.04245443419077342 
4.065758146820642e-20 
0 
-0.002030975480675422 
-2.844143970936513e-05 
0 
0.003892810353073434 
0 
0 
0 
0.002550150636458479 
0.0121122327703384 
-0.001638183213836693 
0 
0 
-0.001310207457860907 
0 
0.003508195724401812 
0 
0 
-0.002813933273286006 
0 
0 
0 
0 
0 
0 
0 
-0.0009190167979557606 
0 
0 
0 
-0.0009190167979557606 
0 
0.001848711994588086 
-0.008325632063717345 
-0.0357596449697126 
0 
0 
0 
0.007994827485124718 
0.001145116238220031 
-0.000919016797955759 
-0.0003761940439194154 
0.006359052679996275 
-0.002627006999483345 
0.00186849493329924 
0.006272973562727284 
0 
0 
0 
-0.001846786240985628 
0.003736989866598481 
-0.0009190167979557606 
0.01046042174441009 
-0.007270772767729541 
0 
-0.04601787961575585 
0.01104194325202059 
0.0002269922142440906 
-0.1644480880209246 
-0.0004157070058105822 
0 
0 
-0.0006907249761715724 
-0.001156362991773878 
-6.776263578034403e-21 
0 
-0.007590784743485515 
0.00231727178746544 
0.009652002025537034 
-0.01133125881885688 
0.006043218728548625 
-0.005285808965950369 
0.003365490536461669 
0 
-1.355252715606881e-20 
0.02248509652194524 
1.219727444046192e-19 
0.1133272267050706 
0 
0.001535919997410922 
0 
0 
0 
0 
0 
0.003397894708892523 
0.006174408757156966 
0 
0 
-0.004528616079848773 
-0.05325762100262856 
0.01496718178952721 
0.08711369092258249 
0.06850899409216787 
-0.002805814814967418 
0.008086447887842043 
0.02029246341160849 
0.03388307116542635 
0.01238816454020272 
0.0302434302637172 
0 
0.03574975953152994 
0.02202429287991503 
-0.005076638940243202 
-0.01081487344139609 
0 
0 
0.04858685562566901 
0.03284419961223532 
0.04278879975477097 
0 
0 
0 
0 
-0.02748854228562323 
0.05817690085554371 
0.01561990179850203 
-0.01331391369848564 
0.03494984119151882 
0.004688994016758406 
-0.001129888316258611 
0.005327037254944276 
-0.04426669034929757 
0.002441972158370847 
-0.0001327528220614314 
0.03599637966707313 
-0.1494822811595077 
-0.02810479020773073 
0.0115531790628287 
0.03502012904738069 
0.1473556331526668 
0.03618134192923538 
0.2215683741998238 
0.1453389446487917 
-0.108151797348537 
-0.0006858005493832236 
0.003337329578247041 
0.1008545407619008 
0 
-2.168404344971009e-19 
0.02450382373995429 
-0.0291653773925048 
0.01584344182680851 
-0.1051548017378639 
0.05375826321667969 
0.003102163551688054 
0.0002931538245649661 
0.006769755618749632 
0.0516286342943881 
0.01504729881994644 
0 
2.981555974335137e-19 
0.1104684134231384 
0 
0 
0 
0 
-0.010012595929168 
-0.09176972743096723 
-0.1775165985065215 
0.09517821213080849 
0 
0.0450830413364528 
0 
-0.01718023140085811 
0 
0.1521307651679303 
0.0003104403813543476 
-0.0003450023717053388 
0 
0.05878689619325565 
-0.0454563877491074 
0 
0.0006886420555553643 
0.02011618754230223 
-0.1162225306912543 
-0.0684657809365319 
0 
0.02987975536545904 
-0.07125827588361372 
-0.003534868246674322 
0.007128102954635847 
-0.1040202694193257 
0 
-0.09375492334916274 
0 
-0.02822877222870725 
-0.07452078586534568 
-0.04508457291355145 
-0.03767378523240123 
0 
-0.03078450973943129 
-0.03138973365017506 
-0.05006934202163479 
-0.0218891478378599 
-0.0474287629859581 
0.001645840476370743 
-0.122181314811625 
0 
0.006150084823785698 
0 
0 
0 
-0.04209487508523255 
0.003128484507050969 
-0.03565110234117864 
0.01944919079589097 
0 
0 
0.03377551266605058 
-0.03873952341517494 
-0.01680809360184643 
0.005063835318476938 
0 
0.03295002006426975 
-2.710505431213761e-20 
0.007388643129975691 
0.02230233456720221 
0 
-0.02554462814480013 
0.07176029684088787 
0.01496548041833222 
-0.009193831995028899 
-0.0183876639900578 
-0.0183876639900578 
-0.001005784219657005 
-0.001508676329485507 
-0.001005784219657005 
0.003421131091882473 
0.09189632844095172 
-0.009193831995028899 
0.03998517816651418 
0.05649918388187057 
0.04998757861569902 
-0.02344085807769788 
-0.04048325396780696 
-0.0005028921098285027 
-0.001005784219657005 
-0.006537597427770548 
0.03190242418169217 
-0.04136567744993881 
-0.02926261168297845 
-0.001005784219657005 
-0.008821593302234733 
-0.0008311678358029011 
-0.03329976038418786 
-0.009193831995028899 
-0.009193831995028899 
-0.009193831995028899 
0.009979626811621102 
-0.05516299197017286 
-0.02769011667099035 
-0.001005784219657006 
-0.0007130158970268136 
0.0063948191505013 
-0.001005784219657005 
-0.001005784219657005 
0.0179251044899518 
-0.005301719401527829 
-0.001005784219657005 
-0.08641589775135468 
-0.008274202136602741 
0.03908711989245742 
-0.004347447323324367 
-0.1009119261951184 
-0.0183876639900578 
-0.0367753279801156 
-0.001005784219657005 
-0.03644512868512922 
-0.001005784219657005 
0.04934287161429114 
-0.0696875360155131 
0.01959517840857938 
-0.007861882648525201 
-0.001005784219657003 
0.04628313935814892 
0.01866963237706919 
0.02268793447204225 
-0.004254391634688021 
-0.02758149598508643 
-0.0456396677663689 
-0.02911020822982727 
0.1564127108101614 
0.04200099118179215 
-0.004206417640925044 
-0.001005784219657005 
-0.002060015782443205 
-0.009193831995028899 
-0.01775184794264541 
-0.009193831995028899 
-0.009193831995028899 
-0.009193831995028899 
-0.02669592109850157 
0.09311894815234453 
-0.001005784219657005 
0.03142556676933349 
0.006323964432223237 
-0.001005784219657005 
-0.03067782941644219 
-0.05795771818057392 
0.01224178727388648 
0.05655404582249449 
-0.04596915997514383 
-0.02758149598508643 
-0.009193831995028899 
-0.004238809375289794 
0.02681283997653226 
-0.001005784219657005 
0.04268847301547748 
0.01867897729316757 
-0.01249088230194637 
0.02134190119626407 
-1.523176997400046e-18 
0.03427040835022792 
0.01569884987833507 
0.02014206975653219 
-0.05144252479745708 
-3.605533272717473e-05 
-3.605533272717473e-05 
0.002558286042815529 
-7.211066545434946e-05 
0.02251032153730032 
-0.003844826814072179 
0.005962399592989381 
-0.01444371322022861 
-0.009216067345796461 
0.001704688610678431 
0.06494438431310837 
0.03152926915031545 
0.004082936720328724 
-3.605533272717473e-05 
0.003627183646103867 
0.03595873200801644 
-0.003081831474726953 
-0.01475851491263843 
-3.605533272717473e-05 
0.0024305947669036 
0.01521297124222622 
0.004492445143023032 
-3.605533272717473e-05 
-7.211066545434946e-05 
-0.002186971777880976 
0.001373285505843679 
-3.605533272717473e-05 
-3.605533272717473e-05 
-0.0001442213309086989 
-3.605533272717473e-05 
-3.605533272717473e-05 
-3.605533272717473e-05 
-0.0001442213309086989 
-3.605533272717473e-05 
-3.605533272717473e-05 
-3.605533272717473e-05 
-0.0001802766636358735 
-3.605533272717473e-05 
-0.0007678356774358296 
-0.0155110407036974 
0.02678245252302624 
-0.002987412202388892 
0.01507999257009784 
-0.01229920046486541 
0.009604521790060142 
-0.02067417213543205 
0.02345466261857244 
0.008796764383734258 
0 
-0.0064471080743009 
-0.03516989350206191 
0.04284243213310745 
0.005867766849919871 
-0.04824666142140865 
0.002274153353999016 
-0.003719265214022154 
-0.02611428932544455 
-0.002921879978856115 
-0.004580427292598008 
-0.009247643133055266 
0.007532195973914749 
-0.02163047140118157 
-0.01574409452376258 
-0.02678171525050677 
0.003827663269524594 
-0.003420354587801583 
-0.03978413427639587 
-0.004691056729321291 
-0.01208891016933493 
-0.0009746367418697603 
-0.006524739467581878 
-0.1666820373346754 
-0.03203142111976981 
0.02115978221504105 
-0.001278353191438322 
-0.0001081659981815238 
-3.605533272717473e-05 
-0.1183021890402075 
0.01893304566998535 
-0.001580332912081799 
-0.01052361156711154 
-0.006159922244150593 
-0.006442003681798472 
0.04461883821379 
-0.04425459140294155 
0.004997809826522369 
-0.023245892158211 
0.007771655399807593 
-0.0002215710252927984 
0.02885101209065048 
-0.1022512291711634 
-0.0991387833573379 
-3.605533272717473e-05 
-0.0001081659981815238 
-3.605533272717473e-05 
-0.0001081659981815238 
-0.0001442213309086989 
-0.02947456132928853 
0.00449246868483939 
-0.01301011046867924 
0.001492158575683456 
0.01340801523458618 
6.776263578034403e-21 
0.003579921724021802 
0.002577738384018601 
0.00219605723168261 
-7.211066545434946e-05 
-0.0001615376219193446 
0.02292008668629923 
-0.04609530865472307 
0.07024889520718001 
0.05203470776843184 
0.008397246772386473 
0.02153843963129276 
-0.0005807523595614157 
0.000150386799369071 
0.0305626338719929 
0 
0.000263674104760634 
0.06239056621361048 
0.03473841095986518 
0 
0.05326338916053493 
0.02818291442195274 
-0.001019656140732052 
0.007950790333267874 
-0.001168807124246236 
0.05320892273206685 
0.04581861312588083 
-0.0001802766636358735 
0.04483806128415008 
0.05544355908142674 
0.05865079937946577 
0.006748066097886664 
0 
0.002742710746246432 
-0.01672690082624666 
8.131516293641283e-20 
-0.006716410398498997 
0.01831911870312057 
-0.0147287461012001 
-0.03246366090485732 
0.01159032130229441 
-0.05976003356263476 
-0.02034910737174479 
0.0140752963456623 
-0.006807964992161387 
-0.0008249233289383533 
-0.0241190837922415 
0.008652601176516976 
1.084202172485504e-19 
0.08423532847066506 
-0.06462403029358454 
5.421010862427522e-20 
-0.1231132223709753 
-0.01302608991338239 
-0.07315691263370794 
-0.09916924235161088 
-0.001088247660587348 
-0.006681502191186855 
-3.605533272717375e-05 
-0.05114392412274981 
0.03267456215936244 
-0.02862657289555916 
0 
0.004374586636393071 
0.0994410258892599 
-0.004034711989313616 
-3.710197249959032e-06 
-0.0009937814171102589 
-2.168404344971009e-19 
-0.00941490654369943 
0.002988250879322504 
0.01536949281414177 
-0.01239024138479588 
0.002704353144391028 
-0.04804823501183556 
0.02384836529151291 
0.03102365133021492 
-0.004563670091575461 
0.0001528036582145318 
-0.03620823541231399 
1.050320854595332e-19 
-0.01109384666832518 
0.0002154616906891349 
-0.008226721084162475 
-0.0002474304304476021 
-0.0732537514709973 
0.00160546623682638 
0 
-0.03953925600902625 
-0.005086653154047259 
0.0429265714741015 
-2.439454888092385e-19 
0.00264691260330283 
-0.009042726803178405 
0.02577415323322989 
0.01676742931596056 
-0.003861708635753696 
-0.02622059295504729 
-0.009899684305992813 
-0.001314430350016624 
-0.02039803534819989 
-5.421010862427522e-20 
0.02015867606338402 
-0.0361832927768683 
-0.003726685809532664 
0.02191009093768414 
0.02315948651549704 
0.003367225616553074 
-0.0514267271153985 
-0.006433732365547304 
4.065758146820642e-20 
-0.1204720859269695 
0 
0.008315787213419155 
0.007102828204350727 
-0.04482017090088623 
0.005681423055392557 
0.05234732925887242 
0.05138579412803781 
0.008958624574700504 
0.03070367963596484 
-0.09507438009296547 
-0.0363358476973288 
-2.710505431213761e-20 
0 
0.1322121007627594 
0.009245225180425053 
-0.002269322937610086 
-0.002547265970223722 
0 
-0.003465349821747543 
0.0317322642437698 
-0.005131747297254618 
0.03584251712214814 
0.00765173029288042 
-0.06033187472723439 
-0.05036601872564408 
0.007032710635019272 
0.000751933996845356 
0.06272276248809584 
-0.06105294053518082 
0.04083268785286967 
-0.072307506244255 
0.006043381327159681 
0.04918206500790917 
-0.02508904572190812 
-0.0476229981339156 
0.0339556085984445 
-3.605533272717451e-05 
-0.003134308349234013 
-0.004548879182230672 
-3.605533272717451e-05 
1.050320854595332e-19 
-0.0001442213309086989 
0 
-0.03600157757653803 
-0.001542147184104995 
0 
0.04777063486695521 
0.03774342535152196 
0.04554412971138135 
-0.05970727846297441 
-0.03557504615927957 
-0.02530406720696234 
-0.03167481506036816 
0.0003213801395334289 
-0.01074126050793306 
-0.008725240539963802 
-7.211066545434946e-05 
-7.211066545434946e-05 
-3.605533272717473e-05 
-0.0001081659981815238 
-0.0406379896032352 
-0.04471684826569881 
-3.605533272717502e-05 
-0.0001081659981815238 
-0.00775793440877782 
0.02606434119083208 
0.01880160886584532 
0 
-0.00586191451454281 
0.003334790894903554 
0.01523569193325166 
-0.01865309571352411 
-0.01053066910077158 
0.01423862341236058 
-7.211066545434946e-05 
-0.0001081659981815238 
0.0761225433545224 
0.02571992624957645 
0.01116658061662767 
-0.01517579339967601 
0.01772849022273171 
-0.03278026324472321 
0.01695756297582758 
0.006096229076216059 
0.03554616611031572 
-0.0196683956102034 
0 
0.02388193096219868 
-0.06992645231458684 
0.002110800948004861 
-0.02561638269915248 
-0.04627676241386702 
-0.0135836501658701 
0.03719681454063248 
-0.01105135160383037 
0.04761917529679598 
-0.04842077806161087 
0.0492957327776772 
-0.0001081659981815238 
-0.03625810171436124 
0.001035845047149557 
0.0304674421425021 
-0.04787289135579184 
-0.02365044977249552 
0.007856740141938132 
-0.04547823412321469 
0 
0 
0.08153971433582077 
-0.01202413191795901 
-0.06035163028980138 
0.04403161820691978 
0 
0.0204511867809696 
-0.004361419573198615 
0.005459505251696924 
0.008828548643202722 
0 
0.005560021851033806 
0 
0.006705157779977704 
0.01854002870769295 
0.005560021851033806 
0.06572606955370007 
0 
0 
0 
0 
0 
2.168404344971009e-19 
0.01705308380294246 
-0.04015530917137014 
0 
0.0007647704645617858 
0.002459956768206696 
-0.1764795814979993 
0 
0.004739708459062443 
-0.007812875984062372 
0.004183259140302226 
-0.01547314964917261 
0.09727776658111746 
0 
0 
0.001581553311484014 
-0.003867184151160091 
0.02004662138401119 
0.002820845663634959 
-0.01788654011528305 
-0.003233643070689738 
0.0681429429232875 
-0.0009741793413891373 
0.001660214271181393 
0 
0 
0 
0 
-1.084202172485504e-19 
0 
0 
0 
0 
0 
0 
0.02059108556366634 
0.03778180619983477 
0 
0 
0.07622436091538941 
0.01752433668827734 
0 
0 
-8.532431912809518e-05 
0 
0.01701692306758129 
-0.007023840778427167 
0.02782990604283533 
0.01678592404180363 
0.0356835162502138 
-0.00194963756085452 
-0.01373916150219437 
-0.03153059372945931 
-0.01250785717020777 
-0.01114083611632513 
-0.0183654391167499 
0 
0 
-0.0538651850037223 
0.00343907161798796 
-0.004103322061516716 
0 
-0.05119333990462449 
-0.1166634383107979 
-0.1261223749178374 
0.007010810739743211 
0.007222422209802641 
0 
-0.01082205773446705 
0.0324138587648911 
-0.03153059372945931 
-0.03153059372945931 
0 
0 
0 
0 
0 
0.02836438100634471 
-0.100590623096644 
0.01314429013219617 
-0.001364433271123582 
0 
0.05309863351869592 
0 
0.001744762243417442 
-0.06129516020322298 
0.003663968484840548 
-0.007078073065386439 
0 
0 
0 
0 
-0.0009190167979557606 
0 
0 
0.02599113654330458 
-0.002167225444025529 
0 
1.626303258728257e-19 
-0.008774953004702343 
-0.01251169963229358 
-0.03030226344804686 
0 
0 
-0.0225465916985595 
0 
0 
0 
0 
0 
0 
0 
0 
0 
0 
0 
0 
0 
0 
0 
0 
0 
0 
0 
0 
0 
0 
0 
0.0003809076331677792 
0 
0 
0.05926379232926927 
0.04715563485125357 
-0.02994487763413553 
-0.004635076328026023 
-0.01621846639143219 
0 
0 
0.01256297528250932 
0.0235284424609061 
0 
-0.3156237522757286 
-8.131516293641283e-20 
0.00582159036288498 
-1.301042606982605e-18 
0 
2.964615315390051e-20 
-0.02442097720019941 
0 
1.084202172485504e-18 
2.710505431213761e-19 
-0.003769178163279951 
-0.006542112492393167 
0.03987154317253811 
-0.02459500593056297 
-0.0492472764381707 
-0.06830270694489179 
0 
0 
0.003108233168418919 
-0.01710543504346435 
0 
-0.01428271048943544 
0 
-0.01911744290616069 
0.01252821360245531 
0 
-0.0003388495683702717 
0.08378958161345029 
0.0009226237869707539 
-0.002456545349221675 
-0.0002279985705171973 
-0.08465402225062107 
0.04056523012361427 
0 
0.00098087767871561 
0.09111963047649961 
-0.001312822702291894 
0 
0 
0.01162211423711225 
0.03739444341557927 
0.02748053158436927 
0.03070532213361523 
0.01614279625085081 
-0.0565190653391566 
0.06573764377917136 
0 
-0.02153792323586529 
0.04166235498820741 
0.06676728271403386 
0 
-0.003671061109787109 
0.0452473325091083 
-0.001178899735649153 
0 
0.01901701646041724 
0.002958836832739976 
-0.03552026246980285 
0.03132716176693412 
0 
-0.0550114360234524 
0 
0 
0 
0 
0.009592019741120724 
0.006268807203269579 
0.01775368006906566 
-0.03203918889423234 
0.09335121569615566 
2.710505431213761e-20 
0.0001227174507409553 
-0.02237091946796759 
0.0270019047353144 
-0.06757627740713414 
-0.02412198264722766 
0.09971802448155478 
0.05517632075217112 
0.1191312730478578 
-0.007883567277696599 
0 
-1.084202172485504e-19 
0.001576962550960614 
-0.008262119318792779 
0 
0.0414829830215754 
0.008620262314187334 
-0.02413221892168294 
0.006226226436255178 
-0.02436270499314188 
0 
0 
0.0607559533295432 
-0.01036569501841719 
0.004461070787523683 
0.0103647455766085 
0.05885326814787364 
-0.005734855246752738 
0.01617260529995752 
-0.03382691087944441 
0.002134691243121528 
-0.0007901664560409016 
0.0294513350454304 
-2.846030702774449e-19 
0.01661198016188318 
-0.002854513726754865 
-0.01193178172414881 
0.01299056661226017 
0.07226545027062435 
0.04532710967848791 
-0.01522647166228432 
0 
0 
-0.01821845454130688 
-0.001044831548258868 
0.01575961823543821 
0.02948425425299349 
-0.02764903048549409 
-0.001720122108742253 
0.01466477145078922 
0 
-0.00199595730311007 
0 
-4.607859233063394e-19 
-0.1568941734111144 
0.01091564620233772 
-0.007871402101201469 
-0.1083369852620178 
-0.003784839605493793 
0.03921340020321327 
0.000184035878830186 
0.03294859297308131 
0.09529811320632584 
0.01124493450825144 
-0.09797344220327817 
0.004979516355865589 
-0.01437280392961158 
0.05791564065206976 
0.01101161226426748 
0.00756745046035368 
-5.421010862427522e-20 
-0.001622368502165585 
0.01126562420128853 
-0.02473184149850566 
-0.02384725233861604 
-0.03370579057337487 
0 
0.00416373305331857 
-2.032879073410321e-20 
-0.001640883231603968 
0.01471967627593728 
-0.04164440890387942 
-0.01998491896901194 
-2.844143970936504e-05 
0.02036269431367609 
0.0009853833602112042 
-0.05184604697545044 
0.002897752593081421 
0 
0 
0.004540448960917209 
0.008508209447603133 
-0.003920705106575736 
0.007496489568469496 
0 
0 
-0.01507273672161897 
-0.01883893567004917 
0.02918044520951813 
-2.812149384884277e-19 
0.02815017451750202 
-0.008252288184223591 
-0.002888988366957662 
0 
0 
0.0286763866456917 
-0.002689759643501804 
-0.001181948573628969 
0.001927894423505892 
0.01639932974820146 
0.007544075663634212 
-0.01140286248397591 
0.01310810748224891 
-0.3194300536756374 
-0.03530154578710883 
0 
0 
0.04839462843142293 
0 
0 
-5.033255194057964e-05 
-0.01618271708193614 
0 
0.03713402643583281 
0 
-0.05790416725580036 
0 
-0.0005722901030232386 
0 
0 
-0.07217829944847741 
0.01420192918855888 
-0.0002603203726080133 
0.02824855717760951 
0 
0 
-0.0007901664560409016 
0.001773165458448261 
-0.05686016677688184 
-7.097524577843439e-05 
0 
-0.0005862712745555713 
0 
1.084202172485504e-19 
0.01995481097260761 
0.009965740835345727 
-0.07590691587480021 
0 
4.743384504624082e-20 
0 
0 
1.084202172485504e-19 
-0.02621885579172252 
0 
0.0289016053722653 
0 
0.01751724793479929 
-0.003573990735968747 
0 
6.816695645834822e-06 
0 
0.04792755232577017 
-0.02849847909761867 
0 
0 
0.005946470144684107 
-0.05215925170977475 
0.01239363783877834 
0.130650231722068 
0 
-0.03856646810818527 
0.003983011738613448 
0.00723452786599738 
0.05404147224076614 
-6.776263578034403e-21 
0.1052022236926526 
0.003216184248357576 
-1.355252715606881e-19 
0.02928587592473978 
0.008021793449555109 
0 
-0.02231239129104213 
0 
0.01742722654810315 
0.004263466012213319 
-0.003940976166364929 
-0.04006000899050186 
0 
0.005833254648198357 
-0.02944518851246163 
0.001166860303772894 
-0.03366619036450118 
-0.002022201019761986 
0.002369394893519475 
0 
-0.0007196695098344939 
-0.0008149746302845094 
0 
0.02080780175145547 
0.0003976655020720058 
-0.004512176249165549 
-0.001881682361001838 
-0.05137970248718128 
-0.04185832099542188 
0 
0.01638222894050645 
0.006070800223158848 
0 
0 
0.07163121158722463 
0.003220316626634306 
0.1575169287517957 
0 
-6.505213034913027e-19 
-0.01124427627843613 
0.008378104341940291 
0 
-0.002004060178020859 
0.02580625115531375 
-0.003337223840855174 
0 
0 
0 
0 
0 
-0.0260967100494973 
0.05375873979023761 
0.03995842690136203 
0.01036766285129117 
0.0266066808394809 
0.01151873198857411 
-0.008115705923840925 
0.001751250589140745 
-0.00112988831625861 
-0.01909212851325416 
-0.0188781547017123 
0.001896808454551265 
0 
0 
-0.0004434943632246011 
0 
-0.006378996184417314 
-0.01027586549793109 
-0.0004563099065243559 
-0.02234367058553 
-2.981555974335137e-19 
0 
0 
0.1057156447564169 
0.01012402117224053 
0 
-0.02757626330905086 
0 
-0.01061608464321099 
-0.0003142415836095458 
0 
-0.02084625867613718 
0.03366239310094778 
-0.167533754845964 
0 
0.04020745759138789 
-0.01131439244867725 
-0.05816867395063783 
-0.03152241556689386 
0.005201193809320272 
-0.004027069387627992 
0.02313486238754812 
-0.0189273736639239 
0.01616750179473372 
-0.06478770471095124 
0.06386505470562934 
0.01995908804667874 
0.007918512804981282 
0 
0.1414237601675054 
0.01769428731758867 
0 
-0.02737860442348211 
0.009056201270612119 
-0.0006373627978263703 
-0.03302180299709029 
0.00143410751847215 
0 
-0.008558284341835507 
0 
0.003582196540401995 
0.01698539978373289 
0.01287103890024964 
-0.02497230364758371 
0.006903328831828627 
-0.01182394192165643 
0 
0.01002628769998395 
0.0005339587970124382 
0 
0 
0 
0 
-4.065758146820642e-20 
0.05595338122049464 
0 
-0.05965094724496525 
0.0523732914797133 
0.02701427460612815 
-0.005752226708448657 
-0.001089378517131088 
0.01355309211771711 
-0.006564362080398217 
0.006782366379384468 
-0.009826431679312983 
0.003648227308895041 
-0.02446788952843888 
0.01373416795031707 
0.005711982465648545 
-0.01087021416000725 
0 
0 
0.02286212626174707 
-0.001076670224834594 
0.01529607802947162 
0 
0.02906714341251195 
0.0304695345843215 
-0.0001274414456831699 
0.003255903670744364 
-0.01599036905046484 
0 
0 
-0.01707410821584223 
0 
0 
-4.02566416913793e-05 
0.01530441361859285 
-0.006200236125531495 
0 
0.008726289107764559 
-0.007968248862896557 
-0.0181404128179672 
0.01183313286133931 
-0.007192299351455369 
-0.01139564915398893 
0.003565640608813499 
-0.2498177223143409 
-8.532431912809466e-05 
-0.02049023941118745 
0 
-8.131516293641283e-20 
-0.03799608595721473 
-0.0001856552328707815 
-0.02438133166124273 
-0.01878582678323171 
-0.002236393037742682 
-0.0004157070058105911 
0 
0.000339604693597603 
0 
0.00253138190473932 
0 
0 
0 
0.002462913618535903 
0 
-0.1823593548411877 
-0.09010879831446633 
-0.06251680629072304 
0 
-0.03966200366045646 
0 
0 
-0.04265550456492151 
-0.002230689328222768 
0.003605401448198635 
0 
0 
0.00396904402878934 
-0.001303793789679093 
0 
0 
0 
0.001087013241572062 
-0.002760200070067122 
0.02512960022126878 
0.006057037546742628 
-0.03492524521348937 
0.02796583982077804 
0.006713026671012126 
0 
0.003216863897408358 
-0.001178899735649154 
0.02947943970525394 
0.00177109425792242 
0.0183520720463126 
0.03587729236714829 
0.008910125624422862 
-0.001918841093783668 
0.0003334977531322039 
0 
0 
0 
0 
0.0139673642093566 
-0.001185525575002925 
-0.002259776632517221 
0 
-0.0102594759276463 
0.004434751882629866 
-0.002118537746895746 
0.0001528036582145317 
0.0115769550386995 
0.004356011904914785 
-0.008960608956785026 
0.01634551276176708 
0 
-0.0007066462138051531 
0.02164423119562004 
-0.005212014641815707 
-0.0106481745114131 
-0.02241990954407563 
0 
0.01396531052947512 
0.047261695949759 
-2.562498858034216e-05 
0.007859105534765137 
0.00334454242067954 
-0.003197421359637265 
0.06939450892284073 
0.009292299848777158 
0 
-0.03945139717655381 
0.03765657564048572 
0 
0 
-0.03153059372945931 
-0.01409462505301826 
-0.005374990285741231 
-4.065758146820642e-20 
0.07353807523553857 
0.03398578731951206 
0.02795718777803308 
0.007561702828700778 
0.01022384425544114 
0.01709076834002448 
0.02489293599170057 
0 
0.001586875995985889 
-0.06121595576433421 
0.08710042167057166 
-0.03539967290497596 
0.01248274027925889 
-0.002054760553784063 
0.03604390697110708 
-0.01527422935555943 
0.001759255529974172 
0.02909476737723793 
-0.003269848325698731 
-0.001157313539615753 
0 
-0.1440030601986691 
0.05126663293444271 
-0.000904367638366045 
0.01710184522845437 
0 
-0.08536950045626092 
-0.009489324940136948 
0.05983231986017201 
-0.02707669259690461 
0 
0.005236471654998121 
-0.03755994317680167 
0.03387524577392417 
-0.01733660969673664 
-0.002357799471298307 
0 
0.008384716029291793 
5.421010862427522e-19 
0.0001528036582145317 
0.01878954167814387 
0.003466396926710187 
0 
0.01475014744525377 
0.005904765017552234 
-0.003725264514545713 
0.002671488470418224 
-0.005481693270272926 
-0.0007901664560409016 
0.007354283638447536 
0.02083144593745254 
-0.01106756648771038 
0 
0 
0 
0 
0 
0.01182790143203691 
0 
0 
-0.01377160387232657 
-0.02993529951306763 
-0.01051356107037275 
-0.003924759734957973 
-0.0002288165420917368 
0 
0.000415890663665199 
0.0006307298567755948 
0.009171996642644368 
0.001504431335228395 
-0.05782623497487371 
0.02464009001105149 
-0.006600577756183973 
0 
0.05292789201391362 
0.0135002948552357 
-0.04073728178111398 
2.710505431213761e-20 
-0.01505866763690662 
-0.03968968025006646 
0.007311556285165459 
0 
0 
-4.743384504624082e-20 
-0.01825438112232306 
0 
0.0004659536445151236 
0.01443631976385521 
0.01355827257854654 
0.07125947823750284 
-0.02795479665677109 
1.626303258728257e-19 
-0.03153059372945931 
0.002908306122595845 
-0.005704749593270302 
-0.03074227843682673 
0.04414230236419889 
0.01640559215145404 
0.01724010446505831 
0.01653873529857897 
-0.002544961044552443 
0.007662101861795669 
0.03366136761722561 
0.01705438239707758 
0.01272529041369755 
0 
-0.001590699337715693 
0 
0.01743761568737589 
0 
0.02506462906388235 
-0.004942208869069317 
-0.003070536899253549 
0.0007767013715962311 
0.0006383078466999145 
-0.05146419042267703 
-0.01376442480080477 
-0.0008979153114913274 
0 
0.01952303606484776 
0.0006358586008055032 
-0.005259136204514885 
-0.09352484585798468 
0.001335886110357494 
0.03116733154397348 
0 
0.006842952218018 
-0.004587497422917756 
0.02882617023275189 
0 
0.04391272495162521 
-0.01862907199646897 
0.009996524812323777 
0.0004601293815929026 
0.02368619470989463 
0.001163784878604789 
0.006963441935412302 
-0.01297741141577355 
-0.0566705546639083 
-0.01846353316526488 
0.01293595408144965 
-0.01052590506305252 
-5.421010862427522e-20 
2.710505431213761e-20 
0 
0.09454014022260446 
0.0157053222937661 
0.003563066407536993 
0 
0.06707823017795336 
-0.08473142637672115 
0 
0.01700679161763762 
-5.688287941873023e-05 
-0.04947302657142488 
0.01239605832013165 
0.02328563674650021 
0.002706852882050067 
0.003664102060573532 
-0.003993205522969739 
0.00409256820691058 
0 
0.006726808064614912 
-0.01169022317441726 
0.01393401371910763 
0.0001673955437259975 
0.001904495937766092 
0.01087504263318808 
0 
0.007338007842181376 
-0.07740625617772985 
0 
0.004628170997185026 
0 
0.03650825177549148 
0.01570826864454293 
0.05694307995555092 
0 
0 
-0.04119322884768677 
-0.03671086013383779 
0.01940223744248764 
0 
-0.009162422814184079 
-0.01389797601536509 
0.04048860597218601 
0.04126326597008906 
0.006845072759523694 
-0.03846770745935116 
0.00958634106345491 
-0.008267357147407048 
0.0201854241974588 
-9.486769009248164e-20 
-0.004135043699286117 
0.006701297880732029 
-0.001418073229469032 
-0.003839490983607976 
0 
0.001855093579208038 
-2.844143970936511e-05 
-0.02960587588073914 
0.00357990742775362 
0.003368713300075283 
0.001569304669395269 
-0.02109459940146674 
3.225501463144376e-18 
0.003016280182719462 
0 
-0.0003627492201957834 
0 
-0.02836646850915258 
0 
0.003315698086786232 
-0.03667965050589628 
0.006299146848944514 
0.01612969150232847 
0.00299347312886928 
0.005925221504568852 
0.01977192638529794 
0.06854249135157493 
-0.001616036711116572 
0.009570082718766774 
-0.006639346911431631 
0.04806623724208074 
0 
0 
0 
-0.002851478385100208 
0 
0.04412385800317268 
-0.0008860088862554443 
0 
0 
0 
0.003485449441611678 
0 
0.04115568136352947 
-0.005791925739779168 
0 
0.02667388533549365 
0 
0 
0.06928566911500676 
0.01063109804393695 
-0.002194583645344029 
0 
0 
0.05988616822991878 
0 
0 
0 
0.006015629166575862 
0.04240562923949681 
0.1001995092265046 
0 
0.001726530889418799 
0 
-0.0237874252781799 
3.252606517456513e-19 
0.0003705992623979813 
0 
0 
0 
0.003724411678496621 
0.01227719818433794 
0.001117343094430186 
0.004058358965905227 
0.001439885973471535 
0.0001528036582145317 
0.0001528036582145317 
0 
0.0001528036582145317 
-0.001062832482490868 
0 
0.05984338901521312 
0.1217473729936585 
0.004968331539255163 
0 
0 
0 
-0.1024171982053088 
0 
0 
0 
0 
-0.01202344171573564 
0.004691775928766037 
0 
0 
0.01955882178654257 
0.006246385155657968 
-0.009651417233521937 
0.08418254516000809 
0.002967498025385919 
0.002569783369996657 
0.002569783369996656 
0.03332221396659841 
0 
0 
0 
0 
0.01423019774645439 
0 
0.0332935723184179 
0 
0.002569783369996657 
0.1245840262713496 
0 
0.002569783369996657 
0.007696038014255072 
0.01296547753934977 
0.001255274159306371 
0.03151533299024992 
0.002569783369996657 
-0.03101485468383216 
-0.02341489714292099 
0.00241697971178214 
0 
-0.002528150361502142 
-0.01444356920306759 
0.002569783369996656 
-0.006301580056561631 
0.01692527161719379 
0.07140537972743725 
0.05709962127872378 
0 
0.03156012501482392 
0.009582207105906407 
0.002569783369996657 
0.0001528036582145314 
0.002569783369996656 
0.0001528036582145317 
0.02251446592756869 
-0.001951059761207922 
0.06509054560785688 
0 
0 
0.003696917478035797 
0.03021933538653374 
0.002896947565726712 
0.002569783369996656 
0.002569783369996656 
0.002569783369996657 
0.002569783369996656 
0.002569783369996656 
-0.01536945836684391 
0.005868122609165236 
0.001854535850739128 
0 
0.002569783369996656 
0 
0.01513900378787509 
0.002569783369996657 
0.002569783369996657 
0.002569783369996657 
0.002569783369996657 
0 
0.08652200811958471 
-0.003565590831031349 
0.09055805144364834 
0.002569783369996657 
0.00296749802538592 
0.00296749802538592 
-0.04962192937299859 
9.207235888116335e-05 
0 
0 
0 
0 
0.02891293518619234 
0.03194351879194721 
0.0004584109746435955 
0 
0 
0 
0 
0 
-0.004355874586186449 
0 
0.002569783369996656 
0.00296749802538592 
0.002967498025385919 
0.002967498025385922 
0.002569783369996656 
0.001314509210690293 
0.002569783369996657 
0.001314509210690293 
0.08393177317384035 
0 
0.002967498025385921 
0.002967498025385922 
0.002967498025385921 
0 
0 
-0.01552258081749185 
0 
0.0005418847381865434 
0 
-0.03087468662597937 
0 
0 
-0.00612095181049946 
-0.06141453467042267 
-0.001229425428529869 
0 
-0.06516821773328074 
0 
0.002110673100209213 
0 
0 
0 
0 
0 
0 
0 
0 
0.002569783369996656 
0.002416979711782138 
0.008079227167894274 
0 
0 
0.002362004410590937 
0 
0.01537482161357847 
0.002569783369996656 
0 
-4.356895845222071e-06 
-0.02300766882131079 
0 
-0.0002512539638778873 
0.0003153649283877974 
0 
0 
0.002569783369996656 
1.694065894508601e-21 
0 
0.002569783369996657 
0.002569783369996657 
0.00296749802538592 
0.002569783369996657 
0.002569783369996657 
0.002569783369996657 
0.002569783369996656 
0.002569783369996657 
-0.0003136764549596116 
0.01253494145097556 
0 
-0.02431784028458973 
0.0002960962802635222 
0.07135323515807226 
0.057749476048336 
-0.01102771179970914 
-0.02445770893411815 
0 
0 
-0.002409859521908696 
0.0124810321002039 
0.0247304191008005 
0.01437696642107999 
0 
0 
0.03136254901611887 
0 
0 
0 
0.009840954060894091 
0.08499371667970312 
0.002569783369996657 
0.0007141318951963409 
0.0001528036582145317 
0.07009925604966319 
0 
-0.001813035550343274 
-0.002242776550248697 
-0.009490965630140059 
-0.08324122157892516 
0 
0 
0.0003705992623979813 
0 
0.02889428686956062 
-0.0002800693489494511 
0.00147549615706785 
0.002569783369996657 
0.002569783369996657 
-0.01666766499806843 
0.00296749802538592 
0.002967498025385923 
0.0001528036582145317 
0.02599966910122787 
0 
0 
0 
0 
0 
0 
0.1040134736524627 
0.009747898549981645 
0 
0 
0 
0 
0 
0 
-0.04783076700674214 
0 
0.002163753275121283 
-0.0307505804469126 
-0.007261264558766178 
-0.002654172203133873 
0 
0.003842997323464629 
0.02551580439662468 
0 
0 
0 
0 
0 
-0.02824275302723636 
0.004682401836584669 
0.0139054539458926 
-0.0349263414367276 
0 
0 
0 
0 
-0.125733705119229 
-0.1366028934416428 
0 
0 
0 
-0.009680539161149332 
0 
0 
0 
0 
0 
0.1098620448927906 
-0.03690257210870988 
-0.02998277936878153 
-0.002358027664234536 
-0.1762296072285759 
-0.01256062302588597 
-0.01779217188737113 
-0.1767342493222066 
-0.09702419624537818 
0 
0 
0 
0 
0 
0 
0 
0 
0 
0 
0 
0 
0 
0 
0 
0 
0 
0.02054912478943616 
-0.007122413644465165 
-0.01977875135276545 
-0.007122413644465165 
0 
0 
0 
0 
0 
0 
0 
0 
0 
0 
0 
0 
-0.04246640644527418 
0.0790415120241256 
0 
0 
0 
0 
0 
0 
0 
-0.04765934436178874 
0 
0 
0 
0 
0 
0 
0 
0 
0 
0 
-0.08892343579282136 
-0.02558639825949773 
0 
-0.01905071869154149 
0.02383056385924335 
0.002438253387290013 
6.816695645834862e-06 
0 
0 
0 
0 
0.004243475067411734 
0 
0 
-0.006306124869373009 
0.03944622510216621 
-0.004387147209456651 
0.01602905840212298 
0 
0 
-0.01743141898272242 
0 
0.02692830670268748 
0 
0.008644401511959679 
-0.2150404409711545 
0 
-0.01546149918876854 
-0.04813003845187556 
-0.00225977663251722 
0 
-0.05267317493571801 
0 
0 
0 
0.1062932322499294 
0 
-0.0008979153114913274 
-0.05494808173528559 
-0.02273634217481464 
0.0173416208155431 
0.05903903877568025 
0.05034994653593492 
-0.02682532620214598 
0.02189331457439381 
0 
-0.06734325014733916 
0.003234587884622503 
0 
0 
0 
0 
-0.08906002903693092 
-0.09139341101505222 
0 
-0.001154475646057165 
0.08515556070698795 
0 
0 
-0.06407185097586025 
-0.01813259725986056 
0 
0 
-0.000974588834597256 
0.009993700061976099 
-0.01261143676438124 
0 
-5.688287941873036e-05 
0 
0 
0 
0 
0 
0.006477842167318228 
6.81669564583536e-06 
0 
0 
0 
-0.1210276224022017 
0 
0.009082878559318686 
0 
0 
0 
0 
0 
0 
0 
0 
0 
0 
-0.02691378478765215 
0 
0 
0 
0.1055663462185339 
-0.005190078097441537 
0 
0 
0 
0 
0 
0 
-0.1088825901252972 
0 
-0.007596599944564407 
-0.05137351271843402 
0 
0 
0 
0 
0 
0 
0 
0 
0 
0.001712530923018457 
0 
0 
0 
0 
0 
0 
0 
0 
0 
0 
0 
0.03882948486804032 
0 
-2.168404344971009e-19 
-0.005600561700428232 
-0.03388807655449209 
0.00239360444302593 
-2.168404344971009e-19 
0.002840085693541393 
-2.168404344971009e-19 
2.168404344971009e-19 
0.003868530286515347 
0.006787158489663224 
0.03816293125116071 
-8.673617379884035e-19 
-0.002192787122862487 
-0.001178899735649154 
0.02747536060896476 
0.0007678678222062921 
-0.005722383427011889 
0.01254939670795548 
-0.02150775897941781 
-0.003066613647869567 
0.02153219405163156 
-0.001091543857594063 
0 
-4.336808689942018e-19 
-0.03598612480260443 
-0.002462359661665901 
0.000634425594731021 
0.006153431044470911 
0.02976342942025423 
0.01296141290226233 
-0.02289755635988064 
0.0009996018276115025 
0 
-0.01091001600451125 
0 
1.084202172485504e-19 
0.01156009904658792 
-6.505213034913027e-19 
1.57553079307227e-05 
-1.084202172485504e-19 
0.01564656827813372 
-1.084202172485504e-19 
0.002648660027387843 
0.08748880056600622 
0.1663990069957298 
0.01781516771841763 
0 
-0.002236393037742682 
0.0002931538245649661 
0.1405671974925786 
0 
-0.04032980571130852 
2.396936322076941e-05 
0.03440256114269747 
-0.001498537250602247 
0.02901854910309646 
0.09888356513499544 
-0.03671889618392711 
0 
0 
0 
0 
0 
0 
-0.01766191201237919 
0 
0 
0.04058944748755453 
0 
0 
0 
0 
0 
0 
0 
0 
0 
0 
0 
0 
0 
0 
0.1092131226277659 
0 
0 
0 
0 
0 
-0.04474921047023445 
0 
0 
0 
0 
-0.05444367355061266 
0 
0 
0 
0 
0 
0 
0 
0.02512104567885867 
0.07709573163131224 
0 
0 
0 
0 
0 
0 
0 
0 
0 
0.04883745162401371 
0 
0 
-0.01237355974443679 
0 
0.06490364696991395 
-1.626303258728257e-19 
0.0009356580439445333 
0 
-0.002939460650185785 
0 
-0.0009190167979557606 
0.003571545150100492 
0.08809956109293003 
-0.03384250283323899 
-0.04009633972869583 
0 
0.006382594790575827 
0.001886985991015628 
0 
0.03788736557508366 
0.001515294430207556 
0 
0.02660186482945456 
0 
0 
-0.006413021394914061 
0 
0 
0.01794523876266542 
-0.07263679828556599 
0 
0 
0 
0.0005942136268375723 
-2.168404344971009e-19 
0 
0 
0 
0 
0.02143445014395216 
0 
0 
0 
0 
-0.001927834770162255 
0 
0 
0 
0.0439911247038994 
0 
0 
0 
0 
0 
0 
-0.0365706206756952 
-0.03149445998827455 
-0.0006469294049504447 
0 
0 
-0.04082114696622944 
0 
0 
0.01034484917765982 
-0.005498623638613 
0.004078226511829434 
0 
0 
0 
0 
0 
0 
0 
0 
0.02266658859994839 
0 
0 
0 
0 
0 
0.01572361268100103 
0.03421086632435826 
0 
0 
0 
0 
0 
0 
-8.131516293641283e-20 
0 
0.04739609609879602 
0.03676615233359774 
0.005505133561616728 
0.02128788594744582 
0 
-0.09800616237948877 
0 
0.08265337788790653 
-0.007952045370055791 
0 
0 
0 
0 
0 
0 
0 
0 
0 
0 
-1.355252715606881e-18 
-0.004941752612909635 
-0.02007221987505053 
0 
-0.01473298077988772 
-0.02608843839316955 
-0.0312911958437959 
0.08945394334065211 
-0.01854006363621282 
-0.04506197367275479 
0 
0 
-0.03982199715156597 
-0.03555959689492143 
0 
0.03613049977035167 
-0.0125533279196843 
0 
0.06240091078156095 
0.01860240167742533 
0 
0 
-0.08835810678773877 
0.001826006621931437 
0 
0 
0.009730577708862639 
-0.01105376260192732 
-0.001650744098358489 
-0.04112136994562555 
0 
-0.01615823104956652 
-0.02951789279642296 
0.03907977314879157 
0.02508507529077726 
0 
0 
0 
-0.02459593672330516 
0 
-0.04543521883662922 
0 
0 
0 
-0.04640119015984565 
0 
0 
0 
0.005184170447264226 
0 
0 
0 
0.03862841506276584 
-0.006471845823909046 
0 
-0.0274625361223398 
0 
-0.02007221987505053 
-0.03105547311264735 
0 
0 
0 
0 
-0.0124938669606468 
-0.04865884956696939 
0 
-0.06059077251763845 
0 
0 
-4.336808689942018e-19 
0 
0 
0 
-0.04126011599915638 
0.01688101147875626 
0 
0 
-0.02357863513926849 
-0.07228906666826024 
0 
0 
0 
0 
-0.07883041655592132 
-0.03673872130411284 
0 
0 
0 
0 
0 
0.00727699985851893 
0 
5.963111948670274e-19 
0 
0 
0 
0.002683766212019937 
0 
0 
0 
0.004565082930723172 
0 
-0.002958687036973101 
0 
0.03422175212018544 
0 
0 
0 
-0.04485640012941484 
0.006673814625751165 
0 
0.003856081294442024 
3.252606517456513e-19 
-0.03670128325650418 
-0.04881216099391845 
0.003455879409676298 
-0.002310015768123237 
-0.02925396290384377 
0.0536705796252696 
0.002195282886611966 
0.02279908523915245 
0.0210147547713242 
0 
-0.007953576651219259 
0.01632190187221776 
-0.001408959000991144 
0.0312985433393493 
-2.168404344971009e-19 
0.003555017400717013 
0 
-0.02439407241326565 
-0.02181398062811455 
0.09347318212402332 
-0.002382657241646106 
-0.01769615086484833 
0.02559567083143209 
0.001619088710027168 
0.008872692466817236 
0.01929324569104201 
0.004028795677581615 
0.001726530889418798 
0 
0 
0.0005744613821852906 
-0.1749412987353376 
0.001199232833362293 
0.007294678327120912 
-0.01284235866171483 
0.01564072318378039 
-0.006231715941493462 
-0.0049475010133659 
0.03483481978403459 
5.421010862427522e-20 
-2.710505431213761e-19 
-0.001866393793415467 
-0.003713405589902233 
0.02235225298198454 
-0.1571189080078077 
0 
0.007661964081243327 
0.01914897616746671 
-0.02265190082946243 
-0.006709179113228058 
0.002223595574387888 
-0.007501424697169804 
0 
0 
0 
-0.005154370338041296 
0.0456196323001043 
0.004352625609603918 
-0.003427482772651804 
0.01756212838104822 
0 
-0.05505200472574642 
-0.009254654952768835 
-0.08623164237041067 
-0.003929537953711107 
-0.06710678492255376 
0.08090311726468015 
0.003182702550700402 
0.05268016143528608 
-0.002450818178894812 
0.01792189776061723 
-0.00915997213042947 
0.0127975704537924 
0.02242814849162695 
-0.006236281250674493 
-0.01273206550035678 
-0.01453373415087196 
-0.003884492316864761 
-0.002136732333793397 
0.001302365680228731 
-4.607859233063394e-19 
0 
-0.01575586946407624 
0.002518575675973658 
-0.02014210974682905 
-0.01960784289824287 
-0.07579803220456682 
-0.04133573118475662 
0.00227378134727892 
-0.01012863493935159 
0.06178616705396148 
-0.1658631256153982 
0.00597636468335351 
-0.007586553881919621 
-0.004472786075485364 
-0.02092009826217747 
-0.003359104524846759 
-0.008933769401909332 
0.00354035976582521 
0.01464729534990035 
0.01607169899688673 
0.004992417496074455 
0.03694295802425002 
-0.01210806972181372 
-0.0001882784706368344 
-0.00679655361126486 
0.01205949407855031 
0.01312991500545985 
0.01601159237750004 
0 
0 
-0.002599142257938458 
0 
-0.03588389563547319 
-0.0165118277713742 
-0.002020931347053546 
-6.776263578034403e-20 
0 
-0.03565426890170775 
0.02562902773701472 
0.01231072520446046 
0.1299007234995805 
-0.01479654678957722 
0.02160603488366868 
-0.004325092455394589 
0.005000215695925587 
-0.003288808775208046 
0 
-0.006334929613723971 
-0.04376839410684483 
-0.02888094215261061 
0.03019967902408175 
0.003294936447874246 
0.0001627184099584076 
-0.007398108058633245 
0.01818042437902849 
-0.04941464371604939 
-0.004247867959334547 
-0.03092623807833699 
0.000522071481707547 
-0.01029561253890437 
0.01159314847089295 
-0.02488454806864551 
0.02477830723277475 
0.00682776220808545 
0 
0 
-0.01789114430194147 
-0.01453443768275406 
-0.002236393037742682 
0.05196590422618577 
-0.001062832482490868 
-0.01736293310155899 
-0.02579411829850856 
0 
8.131516293641283e-20 
0.001054645137701815 
-0.005630811887315922 
0 
0 
-0.01735772827781329 
-0.003489910812883416 
0 
0.01596485996961183 
-0.005187613147018533 
0.03778770123107279 
0.02787481802025289 
-0.003387560598837599 
0 
-0.08568277748649696 
0 
0.03293380950506283 
-0.008681415738267403 
0.04561563793543551 
0.00986799565459439 
0.03909552556846223 
-0.007374171027503155 
0.04546541404518091 
-0.02535370002470042 
-0.08705025397466891 
0.0164669393303811 
0.002148176485320121 
0 
0 
-0.01755045607872248 
-0.01307298241452835 
-0.02606350491515209 
0.008289458613845798 
-0.0139835194099555 
-0.000161975841662112 
-0.005375289604517081 
0.006260665388880841 
-0.002489338170745283 
0.002898792809495176 
-0.02237071442785024 
0.0005971392975584448 
-0.1098834161983721 
-0.395706295059043 
-0.01643863326805909 
0.0008983141841541479 
-0.005476984109820246 
-0.0008979153114913276 
0 
-0.01512384418355768 
-0.003491261072027998 
-0.001511420266871091 
-0.00474653523133436 
-0.002236393037742682 
0 
0.007533164616703268 
-0.02256340107566802 
-0.00112988831625861 
5.421010862427522e-20 
-0.02885868383450168 
0 
-0.01557734304167928 
-0.004898512621762161 
0.001094710832395061 
-8.890762081450987e-05 
0.007163309007757584 
-0.01226996680399875 
0 
-0.04466744687319058 
0.0009362061271588467 
0.007292944393932617 
-2.168404344971009e-19 
-0.004493860783423428 
0.003368713300075283 
0.004773933278354515 
0.00773860351582297 
-0.01599192372156607 
0.002037056077724737 
-2.710505431213761e-20 
0 
0.001033822918825393 
-6.531428921006516e-05 
-0.02805378818493619 
-0.005394296838956772 
-0.007956291977007347 
0 
0.1274040133654115 
0.004608320290760771 
-0.004684442482998643 
0.008969235170839892 
-0.006695223142528905 
0.04852611775381442 
-0.03295566629944555 
-0.002236393037742682 
0.09455394911108421 
0.02004852322780416 
0.07113352588774623 
-0.002185006210851476 
0.05629365361763666 
0.1049276829899551 
0.003183426670729423 
0.001185052123215734 
0.02102096144673134 
-0.004472786075485364 
0.002075082769421376 
0 
-1.626303258728257e-19 
-0.031949664287242 
-0.0393329549308599 
-0.002236393037742682 
-0.0325480288346653 
2.710505431213761e-20 
0.04017394912350408 
0.0003056073164290633 
-0.002055582993426007 
0 
-0.02707252727343992 
-0.01136436341140446 
0.01911137401061706 
-0.002236393037742684 
0.003759896937610262 
0.01866211274211018 
0 
-0.06733063825588695 
-0.001461105400252217 
-0.0511255813606343 
-0.5448292246399753 
0.05725623211318329 
-0.006641831359626578 
-0.003500141303682035 
-0.007862753630441421 
0.0141150434589749 
-0.001663251871819875 
0.009773299196243406 
0.0005003635849185294 
0 
-0.03377008148044854 
-0.004472786075485365 
-0.0005544172906066237 
0.006743554641672353 
-0.0003506667467892104 
-0.01150266104479302 
-0.006408165346800012 
-0.003280979952729108 
-0.007595795379167514 
0.009778453117718652 
0.004154190110279223 
0.007166387396940316 
-0.0134403150158165 
-2.710505431213761e-20 
0.005358872044152889 
-0.04657874311651071 
0.01915579604268353 
-0.005136853058331465 
0 
-0.05971665584110065 
0.008710853578849233 
-2.168404344971009e-19 
0.002154611417687594 
0.000391289556880502 
0 
-0.002802413023111747 
-0.04009987330515366 
-0.03360907839906852 
0.003470667433843028 
0.01049697293098771 
0.02729410636808789 
0.002363270559833742 
-0.07742311443012503 
0.04836182433563241 
-0.001741237088890682 
-0.0008545678661097964 
0.02375567547528848 
-0.05809917340686623 
0.01126374612675248 
-0.002236393037742682 
-0.01392872895198533 
-0.05502956992616222 
-0.002053806138779228 
-0.01385430557916375 
-0.03992008309516999 
-0.004667487176277178 
-0.008543458794527409 
-0.06877470761090861 
0.01685921671371231 
0.01015571814563586 
0 
-0.004884810103282554 
0 
0.08027512989141874 
-0.01546265388023107 
-0.003409480637162574 
0.0008188919221251188 
-0.008934753783429703 
0.01633912490256405 
0.001187973048739262 
0 
0 
-0.01085582767035226 
0.0009356580439445333 
-0.005004003460756726 
0.001646948999255011 
-0.01079969645508034 
0.01154464289039977 
-0.02824404705128271 
-0.0007626236475875943 
0.01375864386557835 
0.001591531520656979 
-0.01366318714037658 
-0.02417306117002907 
-0.0007901664560409016 
0 
2.710505431213761e-19 
-0.001489508923269805 
0.1139662146318427 
0 
-0.004760005715642801 
0.001909572202438801 
0.001242923608338648 
0 
0.001991787948051917 
0.0008038874531375468 
-0.0172549696031163 
-0.002881365845232762 
-0.008618379328842364 
-0.002221141789570333 
0.001393714556668509 
0.04776617188567081 
-5.421010862427522e-20 
-0.002236393037742684 
0 
-0.002236393037742682 
-0.002236393037742682 
-5.421010862427522e-20 
-0.0876874534046222 
-0.005218077488751998 
0.02274763636766784 
0 
0 
0 
0 
0 
0 
0 
0 
0 
0 
0 
-0.001873916252536483 
0 
0 
0 
-0.06799623571255356 
0 
0 
0 
0 
0 
0 
0 
0 
0 
0.07893875792195436 
0.01677952484537078 
0.0007284171958898888 
-0.001062832482490868 
0.001223743183191616 
0 
0 
-0.004872360807497213 
-0.02432353395883661 
0 
0.03962110616035643 
0 
0.03921401227301891 
0 
0 
0.02992709754775742 
0.02729314751775885 
0.1838763253232887 
0 
-2.168404344971009e-19 
0 
-0.05436608655740451 
0.04995616831262742 
-0.279252888365246 
1.084202172485504e-18 
0 
-0.007313876677132802 
0.06556803898571086 
0.08776682234116155 
0 
0.03959420526962003 
0.06327687853641559 
0.01349050641165209 
-0.03448351253497383 
-0.09448779624607254 
0.0226653350159373 
0 
0.04238198494806446 
0 
0 
0 
0.02936954581242125 
0 
0.0138206481762484 
0.02022562315653133 
0.01400461939356397 
0 
0.001266363763610803 
-0.002306547718533522 
0.03625113251895577 
0 
0.06530448814976909 
0.02441122051038914 
0.02441122051038914 
0.07323366153116768 
0.006359766623046902 
0 
-0.1011549656262321 
0.0483087887595981 
0.04146640667137038 
0 
-0.007294071328482924 
0 
0.00543476957764146 
0.02280502912534369 
4.336808689942018e-19 
0 
-0.009239687430315889 
0.01098475090852102 
0.04679642341650941 
0 
0.1021051086201814 
0 
0.04572750696117627 
0 
0 
0.04255292835061727 
-0.01432937562487932 
0.04824769817412777 
0 
0 
0 
0.0006780453898741026 
0.008371986178087749 
0.01685224592850535 
-0.020138521124146 
-0.009359483917403618 
0 
0 
0 
0 
-0.005045659611502606 
0 
0.01450781012195687 
-0.007862898974526274 
0 
0 
0 
-0.01005077111468249 
0.03704179642896001 
0 
0 
0.06352523495574251 
0 
0 
-0.01437881153521661 
0.001226559266643889 
0 
0 
0 
0.09243365447039334 
0 
0 
0 
-0.01234129428626445 
-0.00675400815613869 
-0.01324559963095083 
0 
-0.03915983676000309 
-0.03372294715737886 
-0.03372294715737886 
-0.002183087715188124 
-0.004414559290245501 
0.0134650213071403 
-0.01361466470723399 
0.02965994002782209 
0 
0.05594449671193422 
0 
-0.005493350789187924 
0.001633320920343769 
-0.03733428371013719 
-0.0373872219629248 
-0.0005544172906066262 
-0.0007222233586754356 
-0.006226192526202784 
-0.1302013732103847 
-0.0685861910104377 
-0.0005544172906066262 
0.003595556882713513 
0.0006123602011828701 
0 
-0.001974511163440631 
-0.005793454138220973 
-0.0357321708806279 
0.004634153936393425 
-0.0005544172906066262 
-0.01921633371901539 
-0.01261060758746963 
-0.002350599121273352 
0.04242011995938104 
0.06027399856573899 
0 
-0.0005544172906066262 
-0.04069145324523834 
-0.01835402772343919 
-0.0213260550387821 
-0.004230767888534005 
-0.01231301195753178 
0.01132433140152891 
-0.0005544172906066262 
0.0007411985247959625 
0.008524328623494557 
-0.004355293366106594 
0.01884744766946205 
-0.02204877673483018 
0.008489904645481943 
0.002546126383754697 
0.01972547695380938 
-0.03508946228162228 
-0.01234129428626445 
0.01086727560220953 
-0.06636443431264551 
-0.6025582344835518 
0 
0 
-0.0009745888345972581 
0.0007335591557028605 
0 
0.07607644200827723 
0.01617774632129041 
-0.002790810328349311 
0.01110167178827948 
0.01325957726569525 
0.0674863070525251 
-0.004695928615986535 
0.01087752545079803 
0.0163278818878441 
-0.000554417290606625 
0 
0 
-0.01696337992938765 
-0.03100667591765086 
-2.710505431213761e-20 
-7.047314121155779e-19 
0.04676185582460324 
-0.08085437003782654 
0.01084585579225653 
-0.01239925191827558 
0.07932137912605863 
-1.084202172485504e-19 
-0.001173897410144001 
-0.001843918232962352 
0 
-0.0005544172906066262 
-0.0005544172906066262 
-0.0005544172906066262 
0.01735927811202557 
0.009952434388950035 
-0.003671061109787109 
0.01009165475373725 
0.01423796751638717 
0.0164153421686048 
0.03289628383022719 
-0.002040489147502685 
0.003248660222368744 
0.01287662753621693 
-0.0005889768460119403 
-0.03238015722184102 
-0.01352342157925625 
-0.0005544172906066262 
0.04713569383828857 
1.355252715606881e-20 
0 
-0.000476458478831102 
-0.002495702621939666 
-0.0005544172906066262 
0.06506218942773022 
0 
0.0004052983927979277 
-0.004287205916103817 
0 
-0.0005544172906066262 
0 
0 
0 
0 
0 
0 
0 
0.006226570500197165 
0.01236066768915856 
0.004450693132475635 
0.006057348019445377 
-0.0005544172906066262 
-0.01626021927711449 
-0.0006099654525123957 
-0.001125669169138449 
-0.00330500220087204 
0 
0 
-0.001265370165546535 
-0.002562046194029338 
0.01880851778556316 
-0.0005544172906066262 
0 
-0.0005544172906066262 
0.01656742647078181 
0 
0 
0 
0 
0.01103461888450826 
0.03029058501621583 
0.01628349958860339 
0.01212966470781877 
-0.0203103940732462 
-0.04922756011504104 
-0.00189854625204456 
0 
-0.009773612059400515 
0.001932720410925162 
-0.0008598316468114862 
0.02127668531478256 
0.005741087658566709 
0.003606438261383187 
-0.03264837040861412 
-0.003447009372050488 
0.07650487232037508 
0.001033822918825393 
-0.0435598898906604 
0.01828694976607726 
1.057097118173367e-18 
-0.09622552148579804 
-0.006055774206636977 
0 
0.03288088602032182 
-0.09764841948787562 
0 
0.003545137675276608 
0.01402127480149118 
-0.0007593788832062397 
-0.0049438257720047 
0.0106197277396136 
0.01946422871454697 
0.007697741484441487 
0 
0.03195090184569167 
0.003558529149851835 
0.0003783241806113093 
8.673617379884035e-19 
0.008610328789196589 
0 
0.03121104740104445 
0.0895427831768732 
0.01030445657361298 
0.001441017193572167 
0.01212080815496492 
-0.01364151491562432 
-0.03487459378778306 
0.006356573117754194 
0.002301492894386607 
0.06761971548750512 
0.09498553096432917 
0.03833577427570051 
0 
0.02473739614052569 
0.1900643536078108 
0 
0 
-0.0009100288242763366 
0 
-0.001950280354683668 
-0.001974511163440632 
0 
0 
0.01219634705905499 
0.01267118222109204 
-0.002105542048357042 
0 
0.006246385155657966 
0.01155023207552583 
-0.05752644065019441 
-0.02708766972932683 
0.01402390799200108 
0.009773356260097628 
0.002462913618535903 
0.002516112694259091 
0.00540610250462667 
0.009064520863390678 
-1.084202172485504e-19 
4.343647702823727e-05 
-0.8429192987242549 
0 
0.04245838505275053 
0.006271557957172201 
-0.0009190167979557604 
0.01510888939096518 
-0.114865489719799 
0 
3.388131789017201e-21 
0.03969832133798722 
0.01836015260615685 
0 
0 
0.005293049255735415 
-0.03119392719359276 
0.01589209744507037 
0.008842948630582272 
-0.01946834862306184 
0.03143038310819089 
0.04173348706043353 
0.01040183384368968 
-0.01526625065356512 
-0.01029530140717762 
-0.02741658034656594 
0 
-0.0113640480065055 
0.002692446174334968 
-0.008407343210598899 
-0.06310709192932472 
-0.0003345570901228487 
0 
0.007055552806862499 
-0.006944040636694214 
0.01357359629724979 
0.003647190244554207 
0.008976872373463857 
-0.01017270832150603 
0.01434067223445933 
-0.06623382269412301 
0.008203334072879308 
0.01693722055474177 
0.003664768186196783 
0.009432319395084751 
-0.002604263828184549 
-0.007035744205759862 
0.002474617934220566 
-0.02911653761643241 
-0.05397617879578872 
0.04442476049233385 
0.005679804842961425 
0.01021976335340238 
0.003208729915451813 
0 
-0.01447749322552927 
0.01276493995354193 
0 
0.00119317857963577 
-0.07840315981175579 
-0.05207179030283345 
1.084202172485504e-19 
0.07346054967603147 
0.04404484257298007 
0.005546998431140199 
-0.03373780202723937 
0.005934699537104689 
0.0002777759820926146 
0 
0.07105146425980158 
0.04374026913958697 
0.01739642864015051 
-0.0003627492201957834 
-0.002604263828184549 
0 
0.008188408985588692 
-0.01197098603800374 
0 
-0.03139236894223422 
0.002816679837380111 
-0.01610031120104385 
0.005733458479211962 
-0.0004785062316876748 
-0.00292040012788797 
0.004343840862203414 
0 
0.003193681106415299 
0.0005547118614043045 
-0.009809481881830716 
-0.002236393037742683 
-0.03835750159232795 
0.00507601532088747 
-0.01871762493544225 
1.355252715606881e-20 
-0.00253924454137049 
0.02191547287109497 
-0.003382838277737789 
0 
-0.02891179680079936 
-0.002365434333656006 
-0.011556736476918 
0.001892689222495031 
-0.0104170553127382 
0.0227654536112032 
0.05151187558400974 
0.00716721986878825 
-0.001444459257013651 
-0.04400208426692453 
-0.0001882784706368344 
0 
0 
-0.03186336982995299 
0.005234237391055677 
0 
0 
-0.01585568968308636 
-0.02856214685710048 
-0.02619503884935874 
0.009104682574225725 
0 
-0.008838493082068462 
0 
0 
0 
0 
0 
0 
-0.01134471931316493 
0.06700132131644369 
-0.009292402574257865 
0.009752407961363493 
-0.05570347354140967 
-0.02233490130056198 
0.01008772571328273 
-0.006317130097412372 
-0.008838493082068462 
0.03744384662585701 
-0.04537887725265972 
-0.0737075136930893 
0.01762496273897852 
-0.0187049535516074 
-0.01134471931316493 
-0.004025575889761606 
0 
-4.336808689942018e-19 
0 
-0.005061528400806953 
-0.002236393037742682 
0 
0 
0 
0.003648899014130467 
0 
0 
0 
-0.006542697832444089 
0 
-0.01809497550657621 
-0.009889391643161001 
-0.0005544172906066254 
0.006792085287188537 
0 
0.01907381757686839 
0.03633617270468592 
-0.004707647861896449 
-0.00842439314204234 
0 
0 
-0.005430436959013968 
-2.844143970936526e-05 
-0.01324679796909923 
0 
0 
0 
0.01461575668642423 
0 
0 
0 
0.01661698000093184 
0 
0 
0.007320773450415565 
0.01423134380802312 
0 
0 
0 
